{"model_data": {"model": "SimpleRNN", "input_size": 1, "skip": 0, "output_size": 1, "unit_type": "LSTM", "num_layers": 1, "hidden_size": 32, "bias_fl": true}, "state_dict": {"lstm.weight_ih_l0": [[0.17740392684936523], [0.1057867780327797], [-0.09481460601091385], [-0.07228685170412064], [0.11606809496879578], [0.011026774533092976], [0.014901493676006794], [-0.08985157310962677], [-0.1442425549030304], [-0.00963370781391859], [0.052779730409383774], [0.05098314583301544], [0.04897536709904671], [-0.06763385981321335], [-0.04683955758810043], [-0.07887274771928787], [0.10602070391178131], [0.13998030126094818], [0.07728423923254013], [0.02701919712126255], [-0.16022159159183502], [-0.03318140283226967], [-0.017251266166567802], [-0.03988051414489746], [0.15706926584243774], [0.11464351415634155], [-0.0691566914319992], [-0.05832533538341522], [-0.1057639867067337], [-0.049626559019088745], [0.05166063830256462], [-0.043204858899116516], [-0.1646115481853485], [-0.14270205795764923], [-0.015085394494235516], [-0.042634524405002594], [-0.09668972343206406], [0.09757453948259354], [-0.14707134664058685], [-0.18368203938007355], [0.12890349328517914], [0.09677271544933319], [0.1706172674894333], [-0.056432124227285385], [-0.1222827136516571], [0.003876372706145048], [-0.15093746781349182], [0.10813689231872559], [-0.1271378993988037], [0.15572091937065125], [-0.056797243654727936], [-0.008967038244009018], [0.01043107733130455], [-0.020695701241493225], [-0.14043693244457245], [0.1591164469718933], [-0.14492866396903992], [0.11072888970375061], [0.03919393941760063], [-0.09801724553108215], [-0.05195748805999756], [0.17522498965263367], [-0.11222708225250244], [-0.10569510608911514], [0.12019367516040802], [0.15565448999404907], [-0.0799151137471199], [-0.17243359982967377], [-0.059525713324546814], [-0.026040365919470787], [0.004219493363052607], [-0.15824398398399353], [0.15872396528720856], [-0.08488178998231888], [0.10417987406253815], [0.10254708677530289], [-0.016905518248677254], [0.1859196573495865], [0.036706384271383286], [-0.14033927023410797], [0.04506286233663559], [0.03372352570295334], [0.15180465579032898], [0.02207510732114315], [0.1432037055492401], [-0.12264957278966904], [0.020229747518897057], [0.09295693784952164], [0.15519800782203674], [-0.08874978870153427], [-0.059777796268463135], [-0.016424136236310005], [-0.15875667333602905], [-0.08554477989673615], [0.04086669534444809], [0.0905502513051033], [0.06738755851984024], [-0.0024910394567996264], [0.14449721574783325], [0.10555658489465714], [-0.07981399446725845], [0.12593668699264526], [-0.12088629603385925], [0.009645344689488411], [-0.06837016344070435], [0.16414090991020203], [-0.08928902447223663], [-0.012269088998436928], [0.0756758600473404], [-0.11727140098810196], [-0.11816161870956421], [0.02378113567829132], [0.0202250387519598], [0.04057612642645836], [0.1309642195701599], [0.009847691282629967], [-0.13418130576610565], [0.0029053196776658297], [0.15336863696575165], [0.009704316034913063], [0.0615563839673996], [-0.0805445984005928], [0.11012507975101471], [-0.05108809098601341], [0.12101645767688751], [-0.09770539402961731], [-0.1360505372285843], [-0.11670999228954315]], "lstm.weight_hh_l0": [[0.08842238038778305, -0.05903711915016174, -0.07266701757907867, 0.03617561236023903, -0.07383900880813599, 0.12201399356126785, 0.15149499475955963, -0.18455739319324493, 0.10156960785388947, -0.07666198909282684, -0.1131630539894104, 0.16644258797168732, 0.03752710297703743, -0.011694537475705147, -0.1231260746717453, 0.031223326921463013, 0.08584976196289062, -0.10349102318286896, 0.10390972346067429, 0.0855366662144661, -0.11442118883132935, 0.002700081095099449, -0.06583903729915619, -0.018847951665520668, 0.16325333714485168, 0.1636943817138672, 0.14467716217041016, -0.10139895230531693, -0.04138978198170662, -0.07871624827384949, 0.11411359161138535, -0.16924260556697845], [-0.14628249406814575, 0.04845954477787018, -0.16296175122261047, -0.012749044224619865, -0.025403080508112907, -0.030943436548113823, -0.03132472559809685, 0.15852002799510956, 0.04163303226232529, -0.01223727036267519, -0.11571004241704941, 0.087130106985569, 0.06095033138990402, -0.054043665528297424, -0.18405693769454956, 0.17394641041755676, 0.12522269785404205, -0.04325425252318382, 0.11347456276416779, -0.09250973165035248, -0.10912346094846725, 0.10349470376968384, -0.007762908469885588, -0.052872851490974426, 0.055675212293863297, -0.0950460433959961, -0.0006248702993616462, -0.059883154928684235, -0.1293855905532837, -0.11948566138744354, -0.0035243923775851727, -0.13471132516860962], [0.12365520745515823, -0.13416612148284912, -0.0394977405667305, -0.01124398224055767, -0.10789845883846283, 0.11148428916931152, 0.018677234649658203, 0.08452169597148895, 0.14752152562141418, 0.14659661054611206, 0.11697312444448471, 0.1324930340051651, 0.13763123750686646, -0.05803660303354263, -0.029366180300712585, -0.031890735030174255, 0.15455946326255798, -0.17303253710269928, -0.024795813485980034, -0.10532638430595398, 0.12101425230503082, -0.10361452400684357, -0.08512690663337708, -0.026182373985648155, -0.0176725834608078, -0.006297507788985968, -0.0025232883635908365, 0.00806551706045866, 0.15907584130764008, -0.12674279510974884, 0.0070785596035420895, 0.1509038358926773], [0.09268159419298172, 0.08836541324853897, 0.1769268810749054, -0.0552934966981411, 0.12710803747177124, 0.18346373736858368, 0.06542246043682098, 0.036284711211919785, -0.17117515206336975, 0.08612750470638275, -0.093634232878685, 0.026914546266198158, 0.11073611676692963, -0.15407879650592804, -0.1037459671497345, 0.1527610719203949, 0.1723470240831375, 0.07401405274868011, -0.01608455367386341, 0.07617996633052826, 0.15781506896018982, -0.09248324483633041, 0.1334422081708908, -0.05072120204567909, 0.04382326453924179, -0.12608399987220764, 0.14532160758972168, 0.1023714542388916, 0.04562962055206299, 0.1690426617860794, 0.04763409495353699, -0.022266190499067307], [0.0691564604640007, 0.13830164074897766, 0.06999383866786957, 0.04475210979580879, -0.10213316231966019, 0.09866169095039368, 0.05770701542496681, 0.09619902819395065, -0.14485138654708862, 0.10680795460939407, -0.09580419957637787, 0.06970775872468948, -0.01827080547809601, 0.06229988858103752, -0.05286630615592003, -0.13977494835853577, -0.09845699369907379, -0.15639173984527588, 0.0036557773128151894, 0.13109104335308075, 0.08696696907281876, -0.08286117017269135, -0.08266846090555191, -0.0655793771147728, 0.1486135572195053, 0.03274718299508095, 0.11911066621541977, -0.08456538617610931, 0.019780131056904793, 0.13793259859085083, -0.12315733730792999, 0.10052666813135147], [0.15250620245933533, 0.1704755425453186, 0.15961448848247528, -0.013392277993261814, 0.14344389736652374, 0.14169539511203766, -0.16421744227409363, -0.04784153401851654, -0.0924028530716896, 0.17635270953178406, 0.06810687482357025, -0.16250395774841309, -0.10726073384284973, 0.09878204017877579, 0.15456095337867737, -0.13081340491771698, -0.021534930914640427, 0.005513617303222418, -0.10624419152736664, 0.08044397085905075, -0.01709000952541828, -0.10791590809822083, -0.0336577370762825, 0.047611601650714874, 0.13316881656646729, 0.030803080648183823, 0.12313617020845413, 0.06391210854053497, -0.16176606714725494, 0.11904442310333252, 0.14642006158828735, 0.12907196581363678], [-0.04211489483714104, 0.17058883607387543, 0.141991525888443, -0.05776158347725868, 0.03485923632979393, -0.11989153921604156, 0.06649961322546005, -0.10625091195106506, 0.11463593691587448, 0.1743166595697403, 0.14963340759277344, 0.04005711153149605, 0.10151249170303345, 0.06347078084945679, -0.0058889430947601795, 0.1033608466386795, -0.15364332497119904, -0.08419777452945709, 0.00681747030466795, 0.012416192330420017, -0.07321002334356308, 0.06165795400738716, 0.17041656374931335, 0.0818900465965271, -0.16645699739456177, 0.05232208967208862, -0.1463581621646881, -0.13510513305664062, 0.057677969336509705, -0.011307788081467152, -0.08107990771532059, 0.16184002161026], [0.15310436487197876, 0.06978246569633484, -0.05467568710446358, -0.03127281367778778, -0.003058715956285596, -0.1490023285150528, -0.1518494039773941, -0.012297711335122585, 0.1612558215856552, -0.11387059837579727, -0.13530373573303223, -0.0007555235060863197, -0.09515803307294846, 0.04370541870594025, 0.024060046300292015, 0.1418038308620453, 0.05449097603559494, -0.0712130218744278, -0.15377166867256165, -0.03187333792448044, -0.07990418374538422, 0.05274691432714462, 0.08609864115715027, 0.053888265043497086, -0.005309680011123419, -0.1606229692697525, 0.15797752141952515, -0.1848682016134262, 0.04265184327960014, -0.0073257870972156525, 0.10310680419206619, 0.18380823731422424], [0.11547426879405975, 0.14459194242954254, -0.0356094129383564, 0.12609589099884033, -0.027226654812693596, -0.1580580323934555, 0.16344286501407623, -0.17010530829429626, -0.0755215734243393, 0.09230681508779526, -0.15172666311264038, -0.1199086457490921, 0.02451612614095211, 0.03389876335859299, 0.041320282965898514, -0.07093308120965958, 0.08447843044996262, 0.09814248979091644, 0.03433863818645477, -0.016327284276485443, 0.13437168300151825, -0.0952867940068245, -0.09680166095495224, 0.12914229929447174, 0.059698436409235, 0.03812321648001671, 0.1134229227900505, 0.06542079150676727, -0.14447258412837982, 0.09043469280004501, 0.0429738387465477, 0.13056141138076782], [0.08313331007957458, 0.07551907747983932, -0.1538466513156891, 0.07452342659235, 0.09914401918649673, -0.10267038643360138, -0.14593401551246643, -0.14762870967388153, 0.0851219967007637, -0.10956916213035583, -0.17886696755886078, -0.10647784173488617, -0.15009720623493195, 0.03393390029668808, -0.06936661154031754, -0.004367781803011894, 0.11885067820549011, -0.0967179387807846, -0.13921062648296356, 0.05662352591753006, 0.033871591091156006, -0.15723520517349243, 0.0994628518819809, 0.12311521172523499, -0.06227417290210724, -0.10480299592018127, 0.06764469295740128, -0.0233614519238472, -0.07905031740665436, -0.017306718975305557, 0.16395634412765503, 0.17493224143981934], [0.016857251524925232, -0.11947018653154373, 0.03335822746157646, 0.08518660813570023, -0.016133641824126244, 0.012821209616959095, 0.09581013768911362, -0.18438246846199036, -0.14837604761123657, 0.1516026109457016, 0.07668301463127136, 0.05890094116330147, -0.10660949349403381, 0.15672259032726288, -0.10922329127788544, -0.02821672149002552, 0.044864047318696976, 0.1829306185245514, -0.09944263845682144, -0.05437415465712547, -0.1755438596010208, 0.08971160650253296, 0.0170447938144207, 0.030009675770998, -0.08212431520223618, -0.09241974353790283, -0.010135636664927006, -0.09296241402626038, 0.01927492395043373, -0.058349449187517166, 0.023929551243782043, 0.03792298585176468], [0.0029249186627566814, 0.1644151359796524, 0.0598091296851635, -0.1152949258685112, 0.11504161357879639, -0.059933703392744064, -0.11510820686817169, -0.1620287299156189, 0.07759923487901688, -0.11447027325630188, -0.02643767185509205, -0.1395004391670227, 0.16227583587169647, 0.019767550751566887, 0.010814009234309196, 0.15339885652065277, 0.07837274670600891, -0.1216948851943016, 0.13996288180351257, 0.1374126523733139, 0.0440266951918602, -0.1685115098953247, 0.12142997980117798, -0.1603441685438156, -0.05311571806669235, 0.12153830379247665, -0.1502499282360077, 0.18057134747505188, -0.11722743511199951, 0.09798586368560791, 0.005227023735642433, 0.15169453620910645], [-0.06510648876428604, 0.1487749069929123, -0.11763350665569305, -0.08729726076126099, -0.13847684860229492, -0.15665850043296814, -0.011655538342893124, 0.07127910107374191, -0.13940344750881195, 0.1710706502199173, 0.09141435474157333, 0.10319389402866364, -0.08290981501340866, 0.07388544082641602, -0.1792774647474289, 0.09189695864915848, -0.0064128488302230835, -0.17994165420532227, -0.0947098657488823, 0.0402299240231514, 0.14844492077827454, -0.10731329023838043, 0.006330736912786961, 0.05849486589431763, 0.1769247055053711, -0.03361406922340393, -0.0955849215388298, 0.12797649204730988, -0.034939587116241455, -0.1312885731458664, -0.057066597044467926, -0.07910872250795364], [0.0026305082719773054, 0.11656109988689423, -0.05538027361035347, 0.08526840806007385, -0.16462725400924683, 0.1232060119509697, 0.0013415026478469372, -0.08443313837051392, 0.029761703684926033, 0.09276983886957169, -0.0140966372564435, 0.1100073754787445, -0.059141818434000015, 0.10310038924217224, 0.0275771152228117, 0.08160485327243805, 0.03901445493102074, -0.02551850862801075, -0.07391943037509918, -0.025684548541903496, 0.005113569088280201, 0.1272554099559784, 0.04594538360834122, 0.15644724667072296, 0.04539687559008598, -0.05588022992014885, 0.13219110667705536, 0.13057032227516174, -0.1400691270828247, 0.0785297378897667, -0.10113662481307983, -0.11436693370342255], [-0.14895997941493988, -0.11544627696275711, -0.08345314115285873, -0.11550070345401764, -0.0768926590681076, 0.11299514025449753, -0.12856239080429077, 0.17768710851669312, 0.14339080452919006, -0.06048955023288727, 0.10511896014213562, 0.033571064472198486, 0.10856123268604279, 0.05343245714902878, -0.14907845854759216, -0.017963804304599762, 0.0063430932350456715, 0.0885477140545845, 0.10617075115442276, -0.09636958688497543, 0.04139275103807449, 0.18484869599342346, -0.1591186225414276, -0.08514419943094254, 0.12225339561700821, -0.06756243854761124, -0.05726565048098564, 0.1286223977804184, -0.06528879702091217, -0.057369280606508255, -0.1368311643600464, -0.04458482190966606], [0.15984535217285156, 0.04753469303250313, 0.12631475925445557, -0.04224036633968353, -0.1599815934896469, -0.10260586440563202, -0.09090913087129593, 0.021537967026233673, -0.023824380710721016, 0.1680825650691986, -0.10122966021299362, 0.0014956650556996465, -0.12384939193725586, -0.1716475635766983, -0.04764023795723915, 0.09618300944566727, -0.12807399034500122, 0.05578373000025749, 0.12181710451841354, 0.04129210487008095, 0.04982610046863556, -0.05798964947462082, -0.018936090171337128, -0.06312314420938492, -0.03951384499669075, -0.012311717495322227, 0.06152297928929329, -0.16505855321884155, 0.09205292910337448, 0.12773019075393677, 0.06611602008342743, 0.14814823865890503], [0.10773403197526932, -0.16182228922843933, 0.09156192094087601, -0.10586971044540405, -0.015592800453305244, 0.009625552222132683, 0.1561238318681717, -0.18030484020709991, 0.047276388853788376, 0.16161088645458221, -0.14582055807113647, 0.1255076825618744, 0.02891654334962368, 0.14792384207248688, -0.165127232670784, -0.011399492621421814, -0.01969021186232567, -0.023970287293195724, -0.06193606182932854, 0.049733322113752365, -0.17212286591529846, -0.060589417815208435, 0.13154743611812592, 0.1794867217540741, -0.024474047124385834, 0.1459161788225174, -0.022687554359436035, -0.025304391980171204, -0.13131864368915558, -0.16472841799259186, 0.012254338711500168, 0.05757991597056389], [-0.05533871799707413, -0.07173017412424088, -0.0519324466586113, -0.022829324007034302, -0.022906793281435966, -0.12794774770736694, -0.15322265028953552, -0.11920666694641113, -0.08273845911026001, -0.05767366290092468, 0.061766598373651505, 0.18054769933223724, -0.11575492471456528, -0.015051391907036304, 0.016930803656578064, -0.15925681591033936, -0.03225593641400337, 0.11764717102050781, 0.0015673984307795763, 0.050752703100442886, -0.039086829870939255, -0.15550874173641205, -0.04651355370879173, 0.12578876316547394, -0.11409621685743332, 0.11545992642641068, -0.08477551490068436, -0.10812490433454514, 0.11601132899522781, 0.08395248651504517, -0.18039321899414062, 0.14514502882957458], [-0.0767909362912178, 0.0556323267519474, -0.16460847854614258, 0.12787465751171112, -0.17035873234272003, -0.022154923528432846, 0.0428275428712368, -0.021202582865953445, -0.16690181195735931, 0.0702141597867012, 0.07281352579593658, -0.07701898366212845, 0.10573548078536987, 0.10696713626384735, 0.08251622319221497, 0.02820827066898346, -0.08540847152471542, 0.005652998574078083, 0.10937190800905228, -0.021096432581543922, 0.15009920299053192, -0.04216097667813301, 0.05754508078098297, -0.02554316073656082, 0.024227460846304893, -0.07648830115795135, -0.18300288915634155, 0.17252252995967865, -0.06420335918664932, -0.07997008413076401, 0.1701892763376236, 0.002696193987503648], [0.12366221100091934, -0.1593061089515686, 0.019418295472860336, 0.07861696928739548, 0.024394016712903976, 0.03377479687333107, -0.08153729885816574, 0.061431460082530975, 0.045374222099781036, 0.16521035134792328, -0.09566350281238556, 0.07634072750806808, -0.011622355319559574, -0.10044235736131668, 0.03487195074558258, -0.04316083341836929, -0.06557229161262512, -0.015057090669870377, 0.13526466488838196, -0.17430585622787476, -0.12354890257120132, 0.09939102083444595, 0.05243938788771629, -0.06038414686918259, -0.160990372300148, 0.033075395971536636, 0.04958897456526756, 0.13171875476837158, -0.10090561956167221, -0.04324689134955406, 0.15043769776821136, 0.11174866557121277], [0.03374883905053139, -0.09534694254398346, 0.03041180595755577, 0.04822569340467453, 0.0027853052597492933, -0.16383257508277893, 0.16219401359558105, -0.11005856841802597, 0.12248580157756805, -0.032162487506866455, 0.09785475581884384, 0.01725071854889393, 0.08637572824954987, 0.15808060765266418, -0.08216451853513718, 0.11151865869760513, 0.11973485350608826, 0.0695178434252739, -0.10275016725063324, 0.054061099886894226, -0.02832159399986267, 0.037826452404260635, 0.016365118324756622, -0.16229499876499176, 0.05253317579627037, -0.07483510673046112, 0.13444091379642487, -0.1520620733499527, -0.10114996880292892, 0.04611716791987419, 0.18097960948944092, 0.02542654424905777], [0.05290313810110092, -0.12941160798072815, 0.10206183791160583, 0.06951898336410522, -0.14767616987228394, 0.05504985153675079, 0.1245565339922905, 0.002782918745651841, -0.1495225876569748, -0.13819991052150726, -0.16245290637016296, 0.07785230129957199, 0.16957007348537445, 0.18525680899620056, 0.06546754390001297, -0.1315477192401886, 0.07774177193641663, 0.04636439308524132, -0.01945892535150051, 0.05537616088986397, -0.1530885249376297, 0.15809041261672974, 0.004440327174961567, 0.13759402930736542, -0.027822410687804222, 0.015383378602564335, -0.16334885358810425, -0.1629912108182907, 0.029477309435606003, 0.03390278294682503, 0.13644635677337646, 0.1050683930516243], [0.08758283406496048, -0.11683361232280731, -0.14482490718364716, 0.05933292210102081, -0.10001551359891891, -0.09125173091888428, 0.15487244725227356, -0.07512854039669037, -0.02470134012401104, 0.020424172282218933, 0.16669034957885742, -0.027973312884569168, -0.09556493908166885, -0.01496135164052248, -0.1362891048192978, -0.09096886962652206, 0.0760607048869133, -0.03145526349544525, 0.017428958788514137, 0.02001360058784485, -0.10053873807191849, -0.10148347914218903, 0.03188011050224304, 0.15420809388160706, 0.17600207030773163, 0.014846284873783588, -0.04093122482299805, 0.031118912622332573, -0.02424696646630764, -0.0322704017162323, 0.007246369030326605, -0.11568925529718399], [-0.010102474130690098, -0.07601355016231537, -0.16902387142181396, 0.15696749091148376, 0.1392000913619995, -0.0849514827132225, -0.0733899399638176, -0.16732323169708252, 0.027555815875530243, 0.1285438984632492, 0.011378678493201733, -0.027781156823039055, 0.011258878745138645, -0.03567779064178467, 0.12555134296417236, 0.12143174558877945, 0.027024688199162483, 0.11131543666124344, 0.15198633074760437, -0.11224140971899033, -0.07854851335287094, 0.13427071273326874, -0.1423664391040802, 0.17222493886947632, 0.13996568322181702, 0.025223493576049805, -0.07850779592990875, -0.08982151001691818, 0.13797050714492798, 0.16043975949287415, 0.17679819464683533, -0.09677118062973022], [-0.18405629694461823, 0.016620006412267685, 0.12229017168283463, -0.1326616257429123, 0.10938999056816101, 0.16750988364219666, -0.17692676186561584, 0.060998592525720596, 0.085712730884552, -0.020907757803797722, 0.07182860374450684, 0.06796036660671234, 0.11118702590465546, -0.0631275400519371, 0.1282377690076828, 0.03990638628602028, 0.05981423705816269, -0.07008891552686691, -0.18380238115787506, -0.057702887803316116, 0.0692645013332367, -0.13313938677310944, -0.036304693669080734, -0.02734547294676304, -0.13553950190544128, -0.01947961561381817, 0.11219729483127594, 0.03008819743990898, 0.15007048845291138, 0.09978901594877243, 0.008760455995798111, 0.1598377823829651], [-0.07428041845560074, -0.05700509250164032, -0.09603251516819, -0.07671354711055756, 0.07292301952838898, -0.12458879500627518, -0.06668341159820557, 0.08630601316690445, 0.013261115178465843, -0.10743900388479233, -0.15383145213127136, -0.13562260568141937, -0.122794009745121, 0.09375356137752533, -0.155614972114563, -0.04283757507801056, 0.11370285600423813, 0.13383826613426208, 0.16088005900382996, -0.01842922903597355, -0.15235112607479095, 0.10300842672586441, -0.021734105423092842, -0.008625460788607597, 0.14865508675575256, -0.10184618085622787, 0.138543501496315, 0.15038619935512543, 0.02781483344733715, -0.12831123173236847, -0.0835888609290123, 0.039444535970687866], [-0.10961093753576279, 0.11023350059986115, -0.07451244443655014, 0.07851757854223251, -0.14231784641742706, -0.050877101719379425, 0.04347963258624077, 0.04238990694284439, -0.18208670616149902, 0.12450588494539261, -0.12005273252725601, 0.06819508969783783, 0.07807217538356781, -0.11815930157899857, -0.15772661566734314, 0.08906012028455734, -0.015956725925207138, -0.1255074143409729, 0.05962338298559189, 0.09373622387647629, -0.15916554629802704, 0.10656844079494476, 0.06517791002988815, 0.15103113651275635, 0.0518178753554821, -0.01813000999391079, 0.006751994602382183, -0.01732286624610424, 0.042483702301979065, 0.014807669445872307, -0.09945808351039886, -0.15362317860126495], [-0.167122021317482, 0.15215307474136353, 0.09495406597852707, -0.1295270323753357, 0.04039004072546959, 0.12811388075351715, -0.12593770027160645, -0.06902877241373062, 0.07363176345825195, 0.044613342732191086, -0.08428461849689484, -0.04826601222157478, 0.1427878886461258, -0.05625985562801361, -0.03675122186541557, -0.09323051571846008, 0.15617471933364868, 0.06708364188671112, -0.13855449855327606, -0.14027665555477142, 0.008323335088789463, 0.07046475261449814, -0.15863220393657684, -0.026613369584083557, 0.11482551693916321, -0.10424457490444183, -0.028659721836447716, -0.0620281919836998, 0.046182263642549515, -0.15579469501972198, -0.040493667125701904, -0.17218632996082306], [-0.03980270400643349, 0.14817138016223907, 0.0959237590432167, -0.07689960300922394, 0.13445456326007843, 0.0513809509575367, -0.15519194304943085, 0.04526042938232422, -0.105692058801651, -0.1010313332080841, -0.11600053310394287, 0.12978659570217133, -0.1850595474243164, 0.04034522548317909, 0.07634450495243073, 0.11554238945245743, -0.051076631993055344, 0.1631205976009369, -0.030305247753858566, 0.055318549275398254, -0.15088717639446259, -0.08273282647132874, -0.060868192464113235, 0.10228168219327927, -0.15364520251750946, 0.1124531477689743, 0.14191538095474243, -0.09217090904712677, -0.12595592439174652, -0.035967741161584854, -0.05801380053162575, 0.06304141879081726], [-0.0849008858203888, -0.09817245602607727, 0.07278967648744583, 0.018419312313199043, -0.08847484737634659, -0.14907144010066986, -0.16216391324996948, -0.010176638141274452, -0.034479185938835144, -0.16458825767040253, -0.13163858652114868, 0.10072629153728485, -0.036139413714408875, -0.061088986694812775, 0.13875938951969147, 0.14099851250648499, 0.028052834793925285, 0.030598167330026627, -0.12537558376789093, -0.09957549721002579, 0.04819153621792793, 0.03453360125422478, -0.15902014076709747, 0.14376388490200043, 0.03643361106514931, 0.08031728118658066, 0.09401989728212357, 0.15354730188846588, -0.14584410190582275, 0.16016821563243866, -0.02368185482919216, -0.0145213408395648], [0.036450497806072235, -0.1381097286939621, 0.006930918898433447, 0.1484961062669754, -0.14655010402202606, 0.0435202419757843, 0.09125415235757828, 0.17587876319885254, -0.0817808136343956, 0.04379197955131531, -0.0035987196024507284, -0.05874556675553322, -0.11858900636434555, -0.18128147721290588, -0.17388907074928284, -0.06268294900655746, 0.020585287362337112, -0.047882284969091415, 0.001133590703830123, 0.034073468297719955, -0.16185854375362396, -0.11567863076925278, -0.16591289639472961, 0.14611636102199554, -0.11554188281297684, 0.08009735494852066, 0.05081290379166603, -0.06569897383451462, 0.15599122643470764, -0.09368118643760681, -0.10347472876310349, -0.031560659408569336], [0.157022163271904, -0.152425616979599, -0.0814836248755455, -0.14613644778728485, 0.0749732181429863, 0.02561265602707863, 0.028307722881436348, -0.11012838035821915, 0.008354855701327324, 0.038583312183618546, 0.012859592214226723, -0.003980272449553013, 0.036088164895772934, -0.14390981197357178, 0.00015277593047358096, 0.08206897974014282, -0.08753303438425064, 0.07848621904850006, -0.04192522168159485, -0.007770219352096319, -0.03347263112664223, -0.1640390008687973, 0.07872384041547775, 0.046310070902109146, -0.10182704776525497, 0.026026908308267593, -0.10152965039014816, 0.05755782499909401, -0.029936369508504868, 0.13414309918880463, -0.04617557302117348, 0.06028920039534569], [0.03343287110328674, -0.0023275294806808233, 0.1580834686756134, -0.0979543924331665, 0.12766511738300323, -0.09591211378574371, 0.12982693314552307, -0.0454365611076355, -0.15418663620948792, 0.16259798407554626, 0.1423574984073639, -0.18375103175640106, 0.012394418008625507, -0.05160149186849594, 0.11156488209962845, -0.03862782567739487, -0.03692473843693733, -0.03344796597957611, -0.1592932790517807, 0.0071336738765239716, 0.09854505211114883, -0.1778208315372467, 0.12814491987228394, -0.11695887893438339, -0.07186752557754517, -0.04559532180428505, 0.11702293157577515, -0.05728223919868469, -0.12297500669956207, 0.01186476182192564, 0.014427796006202698, -0.13323281705379486], [-0.17711178958415985, 0.07377324998378754, -0.001942881615832448, 0.12607283890247345, 0.18053406476974487, 0.03482101112604141, -0.17072895169258118, -0.12712271511554718, -0.16708175837993622, 0.057598669081926346, 0.12459022551774979, 0.11081347614526749, 0.10028060525655746, 0.09730006009340286, 0.012720718048512936, 0.17237554490566254, -0.107253797352314, -0.14893268048763275, -0.00382763659581542, -0.046355683356523514, 0.006657129153609276, 0.07451855391263962, 0.03870069235563278, 0.03985026106238365, -0.13467958569526672, -0.062006376683712006, -0.027950430288910866, 0.007756541483104229, 0.163221538066864, 0.034757401794195175, 0.019906964153051376, -0.16572453081607819], [-0.11721859127283096, 0.06121963635087013, 0.16002027690410614, -0.12079142034053802, -0.1511528640985489, 0.02960173971951008, 0.11961731314659119, -0.0075015714392066, -0.16966742277145386, -0.04437363147735596, -0.05614792928099632, 0.18182004988193512, 0.025340987369418144, -0.1072809100151062, -0.02418888360261917, -0.12835188210010529, 0.1321266144514084, -0.04911133646965027, 0.09395051747560501, -0.022525213658809662, -0.04673296585679054, 0.0832718014717102, -0.06981277465820312, -0.17485103011131287, -0.036935992538928986, -0.05123703554272652, 0.08197547495365143, 0.04482807219028473, 0.13024185597896576, -0.09888149052858353, -0.03884877637028694, 0.04113909602165222], [-0.13203759491443634, 0.1526092290878296, -0.09966451674699783, 0.16009896993637085, 0.025877144187688828, 0.12164434045553207, -0.17604047060012817, 0.08577307313680649, 0.07101006805896759, 0.02079056203365326, 0.009570878930389881, -0.002922755666077137, -0.13306237757205963, -0.02906407043337822, 0.03886917605996132, -0.06448672711849213, 0.022033534944057465, 0.11991438269615173, -0.16909606754779816, -0.09387174248695374, 0.13950656354427338, -0.09232036024332047, 0.12102706730365753, -0.07097402215003967, 0.11179497092962265, -0.16423358023166656, 0.11037364602088928, -0.10836412757635117, 0.080141581594944, 0.13876394927501678, -0.06609587371349335, -0.14587976038455963], [0.14242570102214813, 0.13230563700199127, -0.06418447941541672, -0.047750718891620636, 0.05046656355261803, 0.12233301997184753, 0.12269670516252518, 0.022869518026709557, -0.08201893419027328, -0.027005886659026146, -0.1485394537448883, -0.04278910532593727, 0.13065750896930695, -0.008639720268547535, -0.015487076714634895, -0.03660232201218605, 0.08064184337854385, 0.08816391229629517, 0.08579407632350922, 0.02103692851960659, 0.07970180362462997, -0.02117680199444294, 0.0506032332777977, 0.029472380876541138, -0.018899403512477875, 0.16628497838974, 0.0696767121553421, -0.15614788234233856, -0.005367235746234655, -0.15728268027305603, -0.05568062514066696, -0.001148128299973905], [0.06807200610637665, 0.012724189087748528, 0.05285918712615967, -0.16000239551067352, -0.07132750004529953, 0.05505206063389778, -0.02530183456838131, -0.06042409688234329, -0.13573068380355835, 0.009093984961509705, -0.14811812341213226, -0.12196280062198639, -0.12856531143188477, 0.05487892031669617, 0.06493465602397919, -0.0425967276096344, -0.006158041767776012, -0.131987065076828, 0.05528955161571503, 0.07101665437221527, 0.05365494266152382, -0.03097974695265293, -0.16536077857017517, -0.11731743812561035, 0.13460703194141388, -0.17030216753482819, -0.1215120181441307, -0.12523214519023895, -0.1456959843635559, -0.0146415326744318, -0.04821162670850754, -0.16040407121181488], [-0.02612234838306904, -0.06734772771596909, -0.03390251845121384, 0.06686710566282272, 0.10366619378328323, -0.1062968373298645, -0.14515648782253265, 0.03131420537829399, -0.09933685511350632, 0.0743616372346878, 0.002634625183418393, 0.1385495662689209, 0.005346719641238451, 0.01873169280588627, 0.12527279555797577, -0.15542346239089966, 0.12394963204860687, -0.06102469936013222, -0.026644567027688026, -0.10064390301704407, 0.04869379103183746, -0.009132160805165768, 0.057330090552568436, -0.17014282941818237, 0.15519165992736816, -0.13369342684745789, 0.13067127764225006, -0.017324436455965042, -0.06461586058139801, -0.1486932784318924, -0.07158831506967545, -0.07260742038488388], [-0.09094580262899399, 0.17169179022312164, -0.07632248103618622, -0.12630359828472137, -0.15368595719337463, -0.15434812009334564, 0.010022711008787155, -0.11311876028776169, -0.18480107188224792, -0.048154186457395554, 0.009168336167931557, -0.13673171401023865, -0.1711040437221527, 0.024108584970235825, 0.09768429398536682, 0.1555858552455902, 0.13018007576465607, -0.15907590091228485, -0.014321304857730865, 0.0325017049908638, 0.11467728763818741, 0.0982300415635109, -0.024991299957036972, 0.08093287795782089, -0.05345918983221054, 0.05769190564751625, -0.040119074285030365, 0.16298316419124603, 0.01225584652274847, -0.13152916729450226, -0.14288680255413055, 0.03912782296538353], [-0.0338345542550087, 0.12021622806787491, -0.15825685858726501, -0.0342349149286747, -0.07878109067678452, -0.10620688647031784, -0.11580118536949158, 0.1566038429737091, -0.10852573812007904, 0.13306494057178497, -0.08615849912166595, -0.14589020609855652, 0.1338052749633789, 0.16547541320323944, 0.1578061729669571, 0.10539311170578003, -0.18446379899978638, 0.09598824381828308, -0.09166961163282394, -0.08373523503541946, 0.07584529370069504, -0.013023318722844124, -0.18051677942276, 0.16759495437145233, -0.1551748514175415, -0.037988726049661636, 0.1264728307723999, -0.08008549362421036, 0.07273847609758377, -0.030501538887619972, 0.03170665726065636, -0.1679665893316269], [0.040369462221860886, -0.00803819764405489, -0.09673156589269638, 0.13033154606819153, -0.047062817960977554, -0.08499287068843842, -0.1558009684085846, 0.04199918732047081, 0.12831856310367584, -0.13276775181293488, 0.03987717628479004, -0.11469221860170364, 0.08029802143573761, 0.10903605818748474, -0.10265078395605087, 0.04630681872367859, -0.053907860070466995, -0.02028074488043785, 0.13588421046733856, 0.04934477061033249, -0.06227169930934906, 0.01678561232984066, -0.15612013638019562, 0.12474238872528076, -0.10757049918174744, -0.021847767755389214, -0.14878349006175995, -0.15874898433685303, -0.15848936140537262, 0.09422257542610168, -0.16127581894397736, -0.01106459740549326], [-0.14365924894809723, 0.03357721492648125, 0.03961678221821785, 0.06852059811353683, 0.04458116739988327, 0.0966501459479332, 0.12201280146837234, 0.07031624019145966, 0.17146526277065277, 0.03967612236738205, 0.005990061908960342, -0.1592922955751419, -0.05180170387029648, -0.0437018908560276, -0.01753615401685238, 0.08749820291996002, 0.10817369818687439, -0.11432115733623505, 0.024339916184544563, 0.05136992037296295, 0.16160045564174652, 0.06469441205263138, -0.12398771941661835, -0.1608908474445343, -0.0925818532705307, 0.03990614786744118, -0.09959427267313004, 0.09019095450639725, 0.1559343934059143, 0.059618353843688965, -0.023301241919398308, -0.04792854189872742], [0.07428060472011566, -0.17492419481277466, 0.1359950453042984, -0.08198221772909164, -0.05628807097673416, 0.07946254312992096, 0.13717226684093475, -0.07835250347852707, 0.07419571280479431, 0.14024798572063446, -0.04423387721180916, -0.14495006203651428, 0.1607958972454071, 0.06288468092679977, 0.15905293822288513, -0.005708741489797831, -0.07319916784763336, -0.10743727535009384, 0.04253486543893814, -0.13141053915023804, 0.03370308503508568, -0.11009334772825241, 0.07106362283229828, -0.07515078037977219, -0.11376334726810455, -0.016922807320952415, 0.08454034477472305, 0.05697334557771683, 0.09273252636194229, 0.026018405333161354, 0.17253367602825165, 0.024362564086914062], [0.1176840141415596, -0.16114211082458496, -0.09549374878406525, -0.07514592260122299, -0.046743426471948624, 0.04822599142789841, -0.05782178044319153, -0.044152967631816864, -0.12650391459465027, 0.14646698534488678, 0.10773227363824844, 0.08086705207824707, -0.006488157901912928, -0.04469592124223709, 0.11497919261455536, -0.07670637965202332, 0.18255092203617096, 0.06011810153722763, -0.005493250675499439, 0.10586787760257721, -0.04309998080134392, 0.1211523711681366, 0.07129336893558502, -0.04020146280527115, 0.020845649763941765, 0.13619251549243927, 0.08390790969133377, 0.032791461795568466, 0.08561011403799057, -0.12548497319221497, 0.03505260497331619, -0.1330675482749939], [-0.027496226131916046, 0.09593290835618973, -0.1254258006811142, 0.10357962548732758, 0.065854012966156, 0.04200844094157219, -0.15842700004577637, -0.1601763665676117, -0.05787624791264534, 0.0396844744682312, 0.09469129145145416, 0.09871046990156174, -0.08934447169303894, -0.1604740023612976, -0.12079410254955292, 0.006336374208331108, 0.13726520538330078, 0.07076793164014816, 0.04979028180241585, -0.12335748970508575, 0.1238967552781105, -0.00959943886846304, -0.1389153003692627, -0.03301909565925598, -0.03721434995532036, 0.1485024392604828, -0.11155372112989426, -0.030024265870451927, 0.028960412368178368, -0.05487920716404915, -0.01693275198340416, 0.1191813051700592], [-0.11255840212106705, -0.07404938340187073, -0.08401401340961456, 0.08138668537139893, 0.17749857902526855, -0.16087767481803894, -0.03917741775512695, -0.08134560286998749, 0.04419676586985588, 0.11520936340093613, -0.1739722639322281, -0.0071358345448970795, 0.13265974819660187, -0.16284261643886566, -0.13635249435901642, -0.13156758248806, -0.08549398183822632, 0.09727659076452255, -0.09242378920316696, 0.13619093596935272, 0.0206440482288599, -0.10188041627407074, 0.11816047132015228, -0.08749603480100632, -0.14225012063980103, -0.03995802253484726, -0.03753923624753952, -0.03548136726021767, -0.14449331164360046, 0.15818527340888977, -0.003720205742865801, 0.17493374645709991], [-0.18401941657066345, 0.08765225112438202, 0.17812736332416534, 0.15491434931755066, 0.11706633865833282, 0.046105872839689255, 0.04961833730340004, -0.13406839966773987, 0.05449291318655014, 0.04790404066443443, -0.17280647158622742, 0.18579848110675812, -0.01889873668551445, -0.11207983642816544, 0.08762586861848831, 0.019426360726356506, 0.18442970514297485, 0.15872563421726227, -0.01566706784069538, 0.06026441603899002, -0.15001055598258972, -0.021680032834410667, -0.15859071910381317, -0.17460989952087402, -0.07815530896186829, -0.15954414010047913, -0.03906451538205147, -0.11301837861537933, -0.11140880733728409, -0.04275203123688698, -0.15950457751750946, -0.14209890365600586], [-0.02467307634651661, 0.12614823877811432, 0.13487285375595093, 0.07612381875514984, 0.08080092072486877, -0.15030217170715332, -0.13317058980464935, -0.11131501197814941, 0.1793602705001831, -0.07093431055545807, 0.1801214963197708, -0.11347752809524536, 0.009715129621326923, 0.07973138988018036, -0.09481040388345718, 0.10727650672197342, -0.009158964268863201, -0.1370254009962082, 0.0958486944437027, 0.07133504003286362, 0.07393139600753784, 0.02492835745215416, 0.16729553043842316, -0.13889025151729584, 0.0543702095746994, -0.11585288494825363, -0.1234741285443306, 0.14871111512184143, -0.05527539178729057, 0.06144161522388458, 0.04659615084528923, -0.038721878081560135], [-0.0731685608625412, -0.04636048898100853, 0.026490533724427223, -0.15699632465839386, 0.11721917986869812, 0.18332289159297943, -0.03553389012813568, 0.09483347833156586, -0.08795338869094849, 0.0563078410923481, 0.06780368089675903, 0.026863588020205498, -0.09552692621946335, -0.18179011344909668, 0.06958599388599396, -0.042494453489780426, 0.08466583490371704, 0.16459666192531586, 0.05100367218255997, -0.1831953078508377, -0.15756215155124664, -0.11282650381326675, -0.162912055850029, -0.176016166806221, -0.08380771428346634, -0.030910314992070198, -0.11645867675542831, -0.10930956155061722, -0.07312322407960892, -0.04098702594637871, 0.05963623896241188, 0.09922810643911362], [0.0900144949555397, 0.15000055730342865, -0.09686477482318878, 0.09453331679105759, 0.01997760683298111, -0.0009751581819728017, -0.03328511491417885, -0.019663428887724876, 0.03608856722712517, -0.05085388198494911, 0.17624416947364807, 0.0077369967475533485, 0.04326120764017105, 0.14393289387226105, 0.14293533563613892, 0.08705715835094452, 0.05740511789917946, -0.1336681991815567, -0.036155834794044495, 0.01404855027794838, -0.10370629280805588, -0.09027498215436935, -0.04157964885234833, -0.13094960153102875, 0.054972924292087555, -0.15067040920257568, -0.13563480973243713, -0.11216199398040771, 0.13824357092380524, -0.14341700077056885, 0.17213846743106842, -0.06351621448993683], [-0.0638241171836853, 0.027043204754590988, 0.050538789480924606, 0.0198958832770586, 0.10507017374038696, 0.12466530501842499, -0.18125461041927338, 0.013642113655805588, 0.1033753901720047, 0.09625288099050522, -0.17318853735923767, 0.16085706651210785, 0.12505151331424713, 0.1573874056339264, -0.081816665828228, -0.16545532643795013, 0.17988799512386322, 0.11994601786136627, -0.013763662427663803, -0.16456830501556396, -0.09424897283315659, 0.14700034260749817, 0.08102209866046906, -0.1692236214876175, 0.16495004296302795, -0.16065353155136108, -0.0720948725938797, 0.1389303058385849, 0.003211148316040635, 0.15407678484916687, -0.05081803724169731, -0.08949825912714005], [-0.13021782040596008, 0.032317422330379486, -0.17632025480270386, -0.01578802801668644, -0.0035654257517307997, -0.11446934193372726, -0.0030471044592559338, -0.0979541763663292, 0.14502622187137604, 0.16139821708202362, -0.1583559364080429, -0.08933597803115845, -0.07005337625741959, 0.16292963922023773, -0.006167449057102203, 0.14920160174369812, 0.13609708845615387, 0.06260740011930466, 0.0171473678201437, -0.13649782538414001, -0.15564008057117462, -0.015497821383178234, 0.03829246014356613, -0.037459369748830795, -0.16365480422973633, -0.05754872038960457, -0.015510637313127518, 0.062289830297231674, -0.10158754140138626, 0.09067948907613754, -0.054483264684677124, -0.012986818328499794], [-0.03008091077208519, -0.11690957844257355, -0.11396043747663498, 0.06046050414443016, -0.02622086927294731, 0.01096443273127079, 0.08964309096336365, -0.15676622092723846, -0.04078763350844383, 0.14040707051753998, -0.10163304209709167, -0.05875876173377037, 0.08431771397590637, -0.04986690729856491, -0.1519724279642105, 0.05513673648238182, 0.16031362116336823, -0.0738212987780571, 0.06017579138278961, 0.17116963863372803, -0.032081399112939835, 0.0024098956491798162, 0.13456125557422638, 0.02654191106557846, -0.06871155649423599, -0.07813306152820587, -0.15273140370845795, 0.10164080560207367, 0.06757814437150955, 0.1523836851119995, 0.09717875719070435, 0.11818362772464752], [0.06147771328687668, -0.13536053895950317, 0.1380254626274109, -0.12126815319061279, 0.065549835562706, -0.029391176998615265, 0.0587879940867424, -0.030325409024953842, -0.03528434783220291, 0.14285582304000854, -0.07487187534570694, 0.08103924244642258, 0.09951566904783249, -0.18691761791706085, 0.16026873886585236, -0.012393983080983162, -0.11292903870344162, 0.11437438428401947, 0.09777045249938965, -0.10438758879899979, 0.056425679475069046, 0.17912448942661285, 0.15330295264720917, -0.06641289591789246, 0.031571242958307266, -0.080469511449337, 0.16401565074920654, -0.14969691634178162, 0.1594860702753067, -0.0959566980600357, -0.01644255965948105, 0.04238579049706459], [0.06124639883637428, -0.12335687130689621, 0.08040275424718857, -0.03449864313006401, -0.16514456272125244, 0.06132606416940689, 0.031248940154910088, -0.08904443681240082, 0.03359673544764519, -0.17265935242176056, 0.16823923587799072, 0.14216071367263794, 0.04624427482485771, 0.1766018122434616, -0.04941027611494064, -0.15767522156238556, -0.16642409563064575, -0.1080905944108963, -0.050527505576610565, -0.159416064620018, -0.1750328093767166, 0.14096149802207947, -0.11540599167346954, -0.010048439726233482, -0.07529403269290924, 0.04140317812561989, 0.09281208366155624, 0.11243068426847458, 0.015395263209939003, -0.156600683927536, 0.17844346165657043, -0.016029924154281616], [-0.011185498908162117, 0.12735377252101898, 0.10638441890478134, 0.1704157143831253, -0.12733060121536255, 0.1660078465938568, 0.13260038197040558, 0.09932171553373337, -0.0917728841304779, -0.030406277626752853, -0.09856166690587997, -0.08432169258594513, 0.1406533271074295, 0.1523824781179428, -0.10379151999950409, -0.045095961540937424, -0.10923884063959122, 0.10633258521556854, 0.06015101075172424, 0.01691696047782898, -0.025536557659506798, -0.10409003496170044, 0.11852133274078369, 0.11064497381448746, -0.15103816986083984, -0.015215287916362286, -0.031182821840047836, -0.14046388864517212, 0.023762507364153862, 0.0401863157749176, -0.16588027775287628, -0.023323237895965576], [-0.04717196896672249, 0.002961497288197279, 0.09797269105911255, 0.0558420866727829, 0.004416726063936949, -0.15110330283641815, -0.12758436799049377, -0.15277105569839478, 0.13458387553691864, -0.13305692374706268, -0.050474729388952255, -0.17668719589710236, -0.01639421656727791, 0.16397973895072937, 0.053522396832704544, -0.13157953321933746, -0.0585494190454483, 0.11019100993871689, 0.02710030972957611, 0.1791626363992691, -0.05128981173038483, 0.16136901080608368, -0.05007920414209366, 0.09125389903783798, -0.1097177192568779, -0.12818050384521484, -0.1553429812192917, -0.032705921679735184, 0.1293047070503235, -0.090177983045578, 0.031338609755039215, -0.07304196804761887], [0.10261421650648117, 0.13184389472007751, 0.1750568151473999, 0.17831064760684967, 0.07406438142061234, -0.0933690071105957, -0.015578650869429111, 0.1443489044904709, -0.1733132004737854, 0.15271799266338348, -0.09783897548913956, -0.030024757608771324, -0.03533449023962021, -0.07905403524637222, -0.1658223420381546, 0.17118994891643524, -0.1540648639202118, 0.14065967500209808, -0.13837182521820068, -0.08100464940071106, 0.05020300671458244, -0.07548223435878754, 0.17514260113239288, -0.08489476889371872, -0.07264138758182526, 0.11187451332807541, 0.15594586730003357, -0.1105927973985672, -0.11080723255872726, 0.012181095778942108, -0.0748327299952507, -0.022047124803066254], [-0.07137418538331985, 0.15871810913085938, 0.07951147109270096, 0.08839213103055954, -0.017124509438872337, -0.07523804903030396, -0.11690635234117508, -0.010053971782326698, 0.1014968678355217, -0.0003598759067244828, 0.018990714102983475, 0.10451189428567886, 0.17720814049243927, -0.08314523845911026, 0.12396566569805145, -0.1766756772994995, 0.08244267106056213, -0.14428699016571045, -0.031557612121105194, 0.10031026601791382, -0.008928149938583374, 0.1597202718257904, 0.06617463380098343, -0.14408625662326813, 0.11027161031961441, 0.12314171344041824, -0.10088521242141724, -0.08416362851858139, 0.10634111613035202, 0.018247639760375023, -0.07031669467687607, 0.01020981464534998], [-0.0658683106303215, -0.07038488984107971, 0.049978673458099365, -0.10475483536720276, 0.0014430797891691327, -0.13445830345153809, 0.010160299018025398, 0.07925064861774445, -0.17531773447990417, -0.021884363144636154, -0.06335665285587311, -0.03719721734523773, -0.15145756304264069, -0.13915081322193146, -0.16888198256492615, -0.047931745648384094, 0.15872026979923248, -0.05914060398936272, -0.013527383096516132, 0.157051220536232, -0.03179799020290375, -0.15322403609752655, -0.04617631062865257, -0.17745427787303925, 0.004184278193861246, 0.1259591430425644, -0.04836021736264229, 0.10898706316947937, -0.10197282582521439, 0.12880001962184906, -0.18041187524795532, -0.0825493112206459], [-0.03731515258550644, 0.013346053659915924, 0.04500987380743027, 0.10578760504722595, -0.06261785328388214, -0.030706455931067467, 0.10266224294900894, -0.17520847916603088, 0.14129404723644257, -0.14136898517608643, -0.08636050671339035, -0.026903295889496803, 0.0346197634935379, 0.028824327513575554, 0.019334154203534126, -0.1235913410782814, -0.08183591067790985, 0.13823841512203217, 0.08537865430116653, -0.0727434754371643, -0.07381860166788101, -0.0682840496301651, -0.10801094770431519, 0.054733771830797195, 0.1638321578502655, -0.1004430428147316, 0.008589287288486958, -0.07128200680017471, -0.05326371267437935, 0.009595968760550022, 0.0073671527206897736, 0.11970836669206619], [-0.06857933104038239, 0.16446088254451752, 0.16398999094963074, 0.14340698719024658, -0.02121410332620144, -0.12438266724348068, 0.12666192650794983, -0.022374290972948074, -0.029935423284769058, 0.16126848757266998, 0.06906414777040482, 0.11131730675697327, 0.1593841314315796, -0.12438838183879852, -0.09040135890245438, -0.11551695317029953, 0.05695087090134621, -0.05617663636803627, 0.0031456067226827145, -0.1738315373659134, 0.0532943494617939, 0.0855211541056633, -0.10104694962501526, 0.015691189095377922, -0.12964563071727753, -0.12840673327445984, -0.1380195915699005, -0.07871329039335251, 0.13376682996749878, 0.04039491340517998, 0.1438484787940979, -0.15424524247646332], [-0.027435636147856712, 0.10642839968204498, -0.1616993546485901, 0.07425490766763687, -0.10741491615772247, 0.10307133942842484, -0.051532961428165436, -0.13343195617198944, 0.16117623448371887, 0.04277709871530533, 0.022022642195224762, 0.07201159745454788, -0.11975906044244766, -0.033271316438913345, 0.15812884271144867, -0.09630312770605087, -0.032566849142313004, 0.05229507386684418, -0.08349712193012238, -0.1229192316532135, -0.033329688012599945, -0.017452683299779892, -0.0679929256439209, -0.004144423175603151, -0.09801752120256424, -0.15487319231033325, 0.0692347064614296, 0.08868055045604706, 0.14073801040649414, 0.15291233360767365, 0.14286762475967407, 0.052932266145944595], [-0.059970080852508545, 0.17177705466747284, 0.13890667259693146, 0.10180191695690155, -0.12199702113866806, 0.12064225971698761, -0.05110551416873932, -0.10271141678094864, -0.018413696438074112, 0.019816847518086433, 0.14773014187812805, -0.1648084819316864, 0.1652742624282837, 0.03959392383694649, 0.017619509249925613, 0.16262346506118774, -0.1587861180305481, -0.14832356572151184, 0.1264093816280365, 0.10224317014217377, -0.1622980833053589, -0.022472243756055832, -0.008138483390212059, 0.033578649163246155, 0.15947847068309784, -0.08013016730546951, -0.07850679755210876, 0.006252989638596773, 0.0889909490942955, 0.04915457218885422, 0.08624758571386337, -0.10081986337900162], [-0.03905174136161804, -0.11265500634908676, -0.08499923348426819, 0.03918512165546417, -0.0887758880853653, -0.04140247032046318, 0.04359464719891548, -0.1144985482096672, -0.10727056115865707, 0.15046387910842896, 0.09191147983074188, 0.010049530304968357, 0.1125510111451149, -0.12714125216007233, -0.05512401461601257, -0.0166605357080698, -0.14250314235687256, 0.12636114656925201, -0.1281929761171341, -0.09535881876945496, 0.08155512809753418, 0.07283204048871994, -0.021936070173978806, 0.048038579523563385, -0.09974094480276108, 0.02173721231520176, 0.028823798522353172, 0.05382775142788887, 0.0494249127805233, -0.0635022297501564, 0.0006645831745117903, -0.12663039565086365], [-0.08079302310943604, -0.10072296112775803, -0.13375581800937653, 0.12021400034427643, 0.06494984775781631, 0.05079622194170952, 0.15619400143623352, 0.08031272888183594, -0.10744907706975937, 0.04591397941112518, 0.04111497476696968, 0.08133666962385178, 0.06364163011312485, 0.0318165086209774, 0.1483781337738037, -0.1422399878501892, -0.07098782807588577, 0.09939727187156677, -0.04068898782134056, 0.15278412401676178, -0.05415330454707146, 0.15055155754089355, -0.12720835208892822, -0.16108746826648712, 0.09793682396411896, 0.1333959698677063, 0.0012899402063339949, -0.09808579832315445, 0.05333421006798744, 0.11580667644739151, 0.08981825411319733, 0.015193107537925243], [-0.027747152373194695, -0.1537162810564041, 0.14686989784240723, -0.04715543985366821, -0.15363340079784393, -0.14197345077991486, -0.013215369544923306, -0.045179326087236404, -0.18355917930603027, 0.10420094430446625, -0.08947199583053589, -0.06281020492315292, -0.17711195349693298, 0.09089957922697067, 0.10082954913377762, 0.053761813789606094, 0.1258208304643631, -0.0666322261095047, -0.05474013835191727, -0.14371685683727264, -0.11166378855705261, -0.0734657272696495, 0.07258518785238266, -0.021725939586758614, 0.07761941105127335, -0.014311308041214943, 0.054314401000738144, 0.09051577746868134, -0.04298653081059456, 0.10260584205389023, 0.09814656525850296, -0.05564560741186142], [0.058617182075977325, -0.057788457721471786, 0.017008008435368538, 0.13272614777088165, 0.09680182486772537, -0.05359727144241333, -0.10862398892641068, 0.12263134121894836, 0.04095210134983063, 0.025266125798225403, -0.14263804256916046, 0.12511508166790009, 0.04191046208143234, 0.14468646049499512, -0.09038820117712021, 0.058512020856142044, 0.03998022899031639, -0.14615799486637115, -0.12276916205883026, -0.03230583667755127, -0.046427350491285324, -0.06565626710653305, -0.010375062935054302, 0.1270083636045456, -0.11805947124958038, -0.01473112590610981, 0.08722703903913498, 0.055684804916381836, 0.13242878019809723, 0.11202114075422287, 0.09705663472414017, 0.07301035523414612], [-0.08280210942029953, 0.12027217447757721, 0.13051019608974457, 0.12184454500675201, -0.06890660524368286, -0.001992829144001007, 0.026681456714868546, -0.0530773401260376, 0.12887327373027802, 0.17998182773590088, 0.03697869926691055, -0.03463752567768097, 0.11915434896945953, 0.05794689804315567, -0.09837459772825241, 0.06295858323574066, 0.07882178574800491, 0.01659621298313141, -0.04896857962012291, -0.1798567771911621, 0.0021743392571806908, -0.15219858288764954, -0.0002494843793101609, 0.14448533952236176, 0.009307537227869034, 0.018919413909316063, 0.13372351229190826, 0.09464193135499954, 0.17385056614875793, -0.027280712500214577, -0.12702611088752747, 0.06582887470722198], [-0.02261848747730255, -0.015361238270998001, 0.10796995460987091, -0.1847257912158966, 0.06673743575811386, -0.11403350532054901, 0.06507659703493118, 0.04878508299589157, -0.020820220932364464, 0.13732939958572388, -0.1373702734708786, -0.03224704787135124, -0.07007443904876709, 0.03734872117638588, 0.046075981110334396, 0.07760090380907059, -0.07850684970617294, 0.03451531007885933, 0.11889216303825378, -0.09150516986846924, 0.1103774905204773, -0.08648302406072617, -0.14137154817581177, -0.019287707284092903, 0.12569716572761536, -0.11575666069984436, -0.11039143055677414, 0.14768807590007782, 0.004895055666565895, 0.05071154981851578, 0.14606109261512756, 0.038718800991773605], [-0.08719616383314133, 0.1194879561662674, -0.13262619078159332, 0.1781831979751587, -0.1353728175163269, 0.10569518059492111, -0.1765284687280655, -0.027748262509703636, -0.011582307517528534, 0.12326695024967194, 0.025060027837753296, 0.021581284701824188, -0.03582196682691574, 0.14032620191574097, -0.15064974129199982, 0.17751295864582062, 0.030693264678120613, -0.02192852646112442, -0.13144895434379578, -0.06239641457796097, 0.16088677942752838, -0.15679101645946503, -0.05355770140886307, 0.1024533286690712, -0.009314706549048424, -0.11530561745166779, -0.1503017693758011, 0.046304333955049515, 0.08123214542865753, -0.017072483897209167, 0.12979650497436523, 0.17900724709033966], [-0.18291103839874268, 0.07997725158929825, 0.03008604608476162, 0.16985619068145752, 0.09599609673023224, -0.1556040197610855, -0.17470736801624298, -0.09665710479021072, 0.1185755729675293, 0.04582865163683891, 0.1125272586941719, 0.01414911262691021, 0.10302932560443878, -0.010023140348494053, -0.016661731526255608, -0.057193346321582794, -0.15646453201770782, 0.0390179306268692, -0.06945137679576874, 0.14205433428287506, 0.017791366204619408, -0.04918989911675453, -0.020453348755836487, 0.012855947017669678, 0.033003367483615875, -0.08634062856435776, -0.07870840281248093, 0.15248818695545197, -0.08423451334238052, -0.1310274600982666, -0.050035227090120316, 0.12672950327396393], [0.15580618381500244, -0.13796457648277283, 0.049266569316387177, 0.11908766627311707, 0.1099909245967865, -0.146423801779747, 0.15468305349349976, -0.03519386798143387, 0.05389123782515526, 0.13362060487270355, -0.0218428336083889, 0.15817084908485413, -0.146755650639534, 0.010417222045361996, 0.13471832871437073, -0.021621858701109886, 0.11155381053686142, 0.04496733471751213, -0.11474677920341492, -0.09085723757743835, -0.053754772990942, 0.03152589872479439, -0.043747421354055405, -0.09471487253904343, -0.12548673152923584, -0.07890501618385315, -0.07864642143249512, 0.15838423371315002, -0.06812921911478043, -0.0791158452630043, -0.11471616476774216, 0.11339987069368362], [-0.06754087656736374, -0.11616962403059006, -0.09168416261672974, -0.1257312297821045, -0.14183010160923004, 0.1380365937948227, 0.010625877417623997, 0.021564995869994164, 0.14952947199344635, 0.020016441121697426, 0.10667439550161362, 0.03993019089102745, -0.14534693956375122, -0.12751741707324982, -0.15579605102539062, 0.1262962967157364, -0.05681674927473068, 0.0675668716430664, 0.11729025095701218, -0.1588975489139557, 0.02700326032936573, 0.030859412625432014, -0.15619142353534698, 0.038848571479320526, -0.04870793968439102, 0.1522386074066162, -0.04407427832484245, -0.022413352504372597, 0.11926891654729843, -0.049327436834573746, -0.18525905907154083, -0.09699136018753052], [0.1823464334011078, 0.07309193164110184, -0.1830712854862213, 0.04065689072012901, -0.00912090577185154, 0.13203097879886627, 0.09013468027114868, -0.09401835501194, 0.05393774434924126, -0.1080348864197731, -0.008064746856689453, -0.18223541975021362, -0.16785360872745514, 0.026226133108139038, 0.003922411240637302, 0.0011881308164447546, 0.1256200522184372, 0.14489884674549103, 0.06702219694852829, -0.0669131875038147, -0.14651863276958466, -0.13251028954982758, 0.019416892901062965, 0.09005248546600342, 0.16483062505722046, -0.15741735696792603, 0.15948238968849182, -0.05573325231671333, -0.0009509585797786713, 0.11164350807666779, -0.13276071846485138, -0.14817534387111664], [-0.11885243654251099, -0.08452102541923523, -0.15341919660568237, -0.1160004511475563, -0.014147386886179447, 0.14918562769889832, 0.11678975075483322, -0.144398495554924, 0.17050865292549133, 0.019670836627483368, 0.1393699049949646, -0.0633523091673851, -0.022695718333125114, 0.1529274582862854, -0.11385766416788101, -0.051477931439876556, -0.005821203347295523, 0.0014872764004394412, 0.17455348372459412, 0.11423774063587189, 0.07569810003042221, -0.1659853458404541, 0.0793190449476242, 0.00014964092406444252, -0.12953782081604004, -0.16434159874916077, -0.16949667036533356, 0.060913678258657455, 0.14902819693088531, 0.06821021437644958, -0.09483503550291061, 0.14906615018844604], [0.06697005033493042, -0.04843529313802719, 0.01809999719262123, 0.10392679274082184, 0.12293389439582825, -0.03516535460948944, 0.1345721334218979, -0.04634760692715645, -0.016019081696867943, -0.15138141810894012, 0.16277633607387543, -0.07468909025192261, -0.15939900279045105, 0.09929722547531128, 0.036637913435697556, -0.18017104268074036, -0.1106715202331543, 0.04547896608710289, 0.0318082794547081, 0.12954489886760712, -0.09501570463180542, -0.14901524782180786, -0.13567185401916504, 0.04861032962799072, -0.15245895087718964, -0.12517185509204865, -0.18522480130195618, -0.1223338171839714, 0.10692880302667618, 0.08146591484546661, 0.18564625084400177, -0.106899693608284], [0.12844985723495483, 0.02714681252837181, 0.08292964100837708, 0.11071136593818665, -0.010657831095159054, -0.14182275533676147, 0.03991493955254555, 0.01152437087148428, -0.046838097274303436, 0.005037274677306414, -0.03884904459118843, -0.08877155184745789, 0.16754883527755737, 0.04203655570745468, -0.005231963470578194, 0.0577690526843071, -0.06674512475728989, 0.1494113951921463, -0.04423005133867264, 0.03375345095992088, 0.0526704378426075, 0.14612887799739838, -0.1838683933019638, 0.11789269745349884, 0.07799486070871353, 0.1559099406003952, -0.013156142085790634, 0.09630527347326279, -0.12341082841157913, -0.051198653876781464, 0.11267149448394775, -0.15341517329216003], [0.044965654611587524, 0.07892424613237381, 0.08413229882717133, 0.06524880230426788, 0.13494116067886353, 0.13096989691257477, 0.12453202903270721, 0.08900853991508484, -0.0213263388723135, 0.1779828816652298, 0.01892620138823986, -0.1597824990749359, -0.07871734350919724, -0.17621271312236786, 0.10064604133367538, 0.0658903568983078, -0.061511505395174026, 0.07348375767469406, -0.05532446131110191, 0.14266426861286163, -0.08673366904258728, 0.037386637181043625, 0.01325188484042883, 0.09983132779598236, 0.01972668059170246, 0.07238433510065079, 0.07374416291713715, -0.08159511536359787, -0.13553489744663239, 0.02104879729449749, -0.0786195620894432, 0.008626619353890419], [0.09292057901620865, -0.1461506336927414, 0.1507527083158493, 0.047554947435855865, 0.01670175790786743, -0.07793603092432022, 0.01792721077799797, 0.07726862281560898, 0.059373851865530014, 0.022363433614373207, 0.04254210740327835, 0.16615469753742218, 0.11236744374036789, 0.05684793367981911, -0.007987436838448048, 0.14589159190654755, -0.17678901553153992, 0.04138248786330223, 0.015024860389530659, -0.010027291253209114, -0.11817573010921478, 0.049720048904418945, 0.15763884782791138, -0.04142564907670021, 0.0178009495139122, 0.09302067756652832, -0.05049576982855797, 0.17524869740009308, -0.04079749062657356, 0.06759384274482727, 0.03720254451036453, -0.0013902821810916066], [0.058726031333208084, 0.012675082311034203, -0.04774978384375572, 0.15022961795330048, 0.0075036161579191685, -0.06734667718410492, 0.1165480688214302, -0.12614835798740387, 0.04355423524975777, -0.009100460447371006, -0.0995446965098381, 0.014266719110310078, 0.16917556524276733, 0.045091450214385986, 0.00048086329479701817, 0.082542784512043, -0.07942703366279602, 0.071952223777771, -0.14794959127902985, 0.15923528373241425, 0.15056215226650238, -0.040838681161403656, -0.15213105082511902, -0.15860693156719208, 0.0537709966301918, -0.022043876349925995, -0.12751446664333344, -0.09143250435590744, 0.15684597194194794, 0.09057086706161499, -0.12015090137720108, -0.07364050298929214], [-0.0682516023516655, 0.030627284198999405, -0.028913194313645363, 0.056802764534950256, 0.11573770642280579, -0.12490150332450867, -0.15818527340888977, 0.03214399889111519, -0.10238157957792282, -0.090754933655262, 0.16459204256534576, -0.16437086462974548, 0.0659455731511116, -0.18247799575328827, 0.07454381138086319, -0.14055626094341278, -0.1470659375190735, 0.05632255598902702, 0.061073482036590576, 0.02549608424305916, 0.07638132572174072, -0.12871454656124115, -0.033530253916978836, 0.06624259799718857, -0.033750683069229126, -0.18240876495838165, 0.04650019109249115, -0.026309100911021233, 0.043370068073272705, 0.00538996234536171, 0.0798267275094986, 0.16030023992061615], [-0.12633340060710907, 0.08235254138708115, 0.07894802838563919, -0.020010346546769142, -0.17064136266708374, 0.09145960211753845, 0.052230313420295715, 0.043129075318574905, 0.17132063210010529, -0.14296503365039825, -0.07140927016735077, -0.16445407271385193, -0.0004609425668604672, -0.05847723409533501, 0.016985079273581505, 0.011927894316613674, -0.09680729359388351, -0.0796685740351677, 0.051287923008203506, 0.12301187217235565, -0.10677000880241394, 0.09568589925765991, 0.019278857856988907, 0.09006191045045853, -0.16478480398654938, -0.051469750702381134, -0.16305308043956757, -0.1233835443854332, -0.017772307619452477, -0.17531810700893402, -0.03133461996912956, 0.1518072783946991], [0.1223052591085434, 0.0252815093845129, -0.111430324614048, 0.1273036003112793, -0.06869012862443924, 0.09181102365255356, -0.14404945075511932, 0.14035753905773163, 0.12787650525569916, -0.05466428026556969, -0.057589828968048096, -0.13254591822624207, 0.03613463416695595, 0.0923430398106575, -0.06448819488286972, -0.03024919517338276, 0.1501307189464569, 0.12920981645584106, 0.10860012471675873, 0.09844105690717697, 0.05456900596618652, 0.14347828924655914, -0.1251673847436905, -0.014572586864233017, -0.1204577162861824, -0.03769916296005249, -0.053084783256053925, -0.0590054914355278, 0.007418738212436438, -0.09754516184329987, 0.053532324731349945, -0.10511408746242523], [-0.05446074530482292, 0.047982800751924515, 0.10745938867330551, 0.05448232218623161, -0.1527249962091446, 0.09503522515296936, -0.14579588174819946, -0.005813983269035816, 0.01957119069993496, 0.07585734128952026, 0.056975096464157104, 0.021796295419335365, 0.10184736549854279, 0.10253449529409409, 0.026691537350416183, -0.023919422179460526, -0.08826056867837906, 0.012988231144845486, 0.020810646936297417, -0.017444366589188576, 0.013730991631746292, 0.005142998415976763, -0.037351589649915695, -0.10851157456636429, 0.0531899519264698, 0.029831228777766228, 0.017026247456669807, 0.11091118305921555, -0.11196137964725494, 0.002863359171897173, 0.07799187302589417, -0.02594882622361183], [0.030634155496954918, -0.07765082269906998, 0.0057736043818295, -0.09652379900217056, 0.1214156523346901, -0.1000756248831749, -0.08464665710926056, -0.08200538158416748, 0.10651791840791702, 0.10560368746519089, 0.04728846624493599, -0.03526725992560387, -0.1416575312614441, 0.079940564930439, 0.06090950593352318, -0.08914173394441605, 0.08180510252714157, -0.01387384720146656, 0.10274672508239746, 0.07614831626415253, -0.16723181307315826, -0.1339244544506073, -0.06261035054922104, 0.08304017037153244, -0.06285309046506882, -0.1647680103778839, -0.02168411761522293, -0.06205077841877937, -0.11692128330469131, -0.03864653408527374, 0.039638370275497437, -0.09829131513834], [-0.07864043116569519, -0.02335917204618454, 0.04605667665600777, 0.16996042430400848, -0.15694080293178558, -0.006260222289711237, 0.1510155349969864, -0.027909159660339355, 0.07071045786142349, -0.07529442757368088, -0.006377056241035461, 0.13468003273010254, 0.04896526038646698, -0.16563095152378082, -0.14615753293037415, 0.062063317745923996, 0.11215145140886307, -0.0001449769188184291, 0.14319312572479248, 0.0059027476236224174, 0.04972540959715843, -0.010917282663285732, 0.18393971025943756, 0.02611217088997364, -0.07041717320680618, -0.15308590233325958, 0.12417569756507874, -0.1014961525797844, -0.14588135480880737, -0.06576915830373764, 0.012309050187468529, 0.16821180284023285], [-0.042697034776210785, 0.0015267024282366037, -0.16125109791755676, 0.0891549289226532, -0.03162257373332977, 0.010547792539000511, 0.09271369874477386, 0.17912788689136505, 0.15335412323474884, -0.16310888528823853, 0.08903741836547852, -0.0950411707162857, 0.14397764205932617, -0.15348148345947266, -0.017888883128762245, 0.0983939841389656, 0.1310962736606598, -0.05645265057682991, 0.0968211218714714, 0.03283626586198807, 0.05713553726673126, -0.08879093825817108, -0.01307742577046156, -0.01410332415252924, 0.08402521908283234, -0.0801696926355362, 0.12554113566875458, 0.1533171832561493, 0.17745168507099152, 0.005976582877337933, -0.06389272212982178, -0.04494089260697365], [-0.049768488854169846, -0.06089869514107704, -0.08724778145551682, 0.11914240568876266, -0.10590087622404099, 0.11521443724632263, 0.008118774741888046, -0.14469146728515625, 0.08187760412693024, 0.08932783454656601, 0.16517429053783417, -0.07160849869251251, 0.10192198306322098, 0.13415266573429108, -0.09738441556692123, -0.00027386032161302865, 0.09737666696310043, 0.028032833710312843, 0.0008430707966908813, 0.06041461601853371, -0.0742461085319519, -0.06250782310962677, 0.1640138328075409, 0.1280127912759781, 0.03634512796998024, 0.05616382136940956, -0.0600782185792923, -0.06175811216235161, -0.12260104715824127, -0.08576827496290207, -0.010809246450662613, -0.04550263285636902], [0.025602856650948524, -0.08740950375795364, -0.038421399891376495, -0.011014546267688274, 0.07299510389566422, 0.15485884249210358, -0.17190414667129517, -0.10952119529247284, 0.1538839340209961, -0.10093680769205093, -0.02563663013279438, 0.17706090211868286, 0.02505633421242237, 0.09687447547912598, -0.04168501868844032, -0.002203292679041624, -0.0670771449804306, -0.1607619822025299, 0.06645730882883072, 0.03597384691238403, 0.10485079139471054, -0.10693488270044327, -0.1419096440076828, 0.1092485785484314, 0.1383807510137558, -0.022160055115818977, 0.016250083222985268, 0.05645615980029106, 0.021532945334911346, -0.045539095997810364, -0.1272706687450409, 0.10108371078968048], [-0.08886633068323135, 0.02616017684340477, 0.14934782683849335, 0.03678831830620766, -0.00390841718763113, 0.11428970843553543, 0.13578620553016663, 0.04641835391521454, 0.0667230635881424, -0.03987577185034752, -0.10882104188203812, -0.04247766733169556, -0.026077494025230408, -0.13691487908363342, -0.13487660884857178, 0.04668981954455376, 0.051438525319099426, 0.0655723437666893, 0.14585790038108826, -0.06441114842891693, 0.04942100867629051, 0.01736065186560154, -0.06264538317918777, -0.039788443595170975, -0.06771068274974823, -0.12090842425823212, 0.10043221712112427, 0.08400989323854446, 0.1573380082845688, -0.1251017302274704, -0.030148213729262352, -0.08829387277364731], [-0.07968238741159439, -0.01622673310339451, 0.08417300134897232, 0.09863143414258957, 0.07567822933197021, 0.17082175612449646, -0.10058839619159698, -0.009864531457424164, 0.07042065262794495, -0.14459821581840515, -0.14072135090827942, 0.035479675978422165, 0.03767569735646248, 0.016713609918951988, 0.109040267765522, -0.11168298125267029, -0.16525773704051971, -0.12223705649375916, -0.15131527185440063, 0.01520693302154541, 0.1077742651104927, 0.008619493804872036, -0.028053881600499153, 0.14851433038711548, 0.15416449308395386, 0.14855539798736572, -0.08131854236125946, -0.11474660038948059, -0.10166554898023605, -0.1394735723733902, -0.10057735443115234, -0.11194033175706863], [0.022392505779862404, -0.0958513543009758, -0.08373866975307465, -0.06428143382072449, 0.013647312298417091, 0.11632179468870163, 0.04141085222363472, -0.17271190881729126, -0.13902387022972107, -0.10108156502246857, 0.10279498249292374, -0.11126937717199326, 0.15517722070217133, 0.09897857904434204, 0.006078943610191345, -0.08011659234762192, -0.06698895245790482, -0.11426793038845062, -0.04504796862602234, 0.10006427764892578, -0.09534252434968948, 0.11835969239473343, -0.051288120448589325, 0.0035719284787774086, -0.0995786190032959, 0.11312767118215561, -0.11752977222204208, -0.04563618823885918, 0.024371325969696045, -0.04542065039277077, 0.11349406838417053, -0.12948712706565857], [-0.06233527511358261, -0.15706105530261993, 0.015713240951299667, 0.028856266289949417, -0.14665533602237701, -0.08878815174102783, 0.053064703941345215, 0.09680090099573135, -0.07406079024076462, 0.1581360399723053, 0.07491613179445267, -0.01810229755938053, -0.13408994674682617, -0.08457455039024353, 0.11381819099187851, -0.0198952816426754, 0.08141767233610153, -0.13275690376758575, -0.10270638763904572, 0.07844378054141998, 0.09546779841184616, 0.011383669450879097, 0.04607203230261803, -0.04887714236974716, 0.09976054728031158, -0.07108987867832184, -0.06097037345170975, 0.030936388298869133, 0.07495567947626114, 0.07614593952894211, -0.0633045956492424, 0.04904419183731079], [-0.03325928375124931, -0.15257957577705383, 0.10723602771759033, 0.05990903079509735, 0.07829421758651733, 0.025463039055466652, 0.04641100764274597, -0.06875283271074295, 0.09986843168735504, 0.02011759951710701, 0.002094421535730362, 0.10632282495498657, -0.09640668332576752, 0.06973530352115631, -0.1841343641281128, 0.07514086365699768, 0.08339418470859528, -0.12427352368831635, -0.06906783580780029, -0.18610626459121704, 0.06170281022787094, -0.14231938123703003, 0.00162590725813061, -0.04410131275653839, -0.01781809702515602, 0.063141368329525, -0.03414199501276016, -0.12710127234458923, -0.03993725776672363, -0.11445111036300659, -0.07323822379112244, -0.1531861573457718], [-0.03918970376253128, 0.10530125349760056, 0.1663079410791397, -0.13666540384292603, -0.108251191675663, 0.02802944928407669, 0.020147664472460747, 0.15344049036502838, -0.07031384855508804, 0.0036483395379036665, -0.1348598450422287, 0.019379908218979836, -0.14171068370342255, 0.06814821064472198, 0.15507672727108002, 0.011968887411057949, -0.08925595134496689, 0.18089920282363892, 0.06795736402273178, 0.019053010269999504, -0.1461407095193863, -0.16107401251792908, -0.057615771889686584, -0.029622236266732216, 0.09855591505765915, -0.009239290840923786, 0.16634885966777802, 0.06680842489004135, -0.18514464795589447, -0.14730344712734222, 0.13264185190200806, 0.12846824526786804], [0.010483695194125175, -0.16392283141613007, -0.04118778929114342, 0.13893960416316986, -0.15946078300476074, 0.0866265594959259, 0.13232707977294922, -0.023637836799025536, 0.14722664654254913, 0.17230123281478882, 0.026689674705266953, 0.005672085098922253, 0.06056303158402443, -0.042566023766994476, 0.039284806698560715, -0.02378011681139469, -0.06331594288349152, -0.09171558916568756, -0.07449997961521149, 0.011818205937743187, 0.042017269879579544, 0.1295490711927414, -0.06321779638528824, 0.12447615712881088, 0.1148269772529602, 0.023793963715434074, -0.08793659508228302, -0.03294854238629341, 0.16310551762580872, -0.0026319820899516344, -0.030275395140051842, 0.059373412281274796], [-0.1533813774585724, 0.012484891340136528, -0.012281284667551517, -0.02631690725684166, 0.1256730705499649, 0.14148582518100739, -0.15760619938373566, -0.08707582205533981, -0.04994086176156998, 0.04136563092470169, -0.09704562276601791, -0.0068143452517688274, 0.16460035741329193, -0.026626087725162506, 0.0038988739252090454, 0.038115981966257095, 0.14413678646087646, -0.04560268670320511, -0.06460807472467422, 0.10544966161251068, -0.1230115294456482, 0.11975213885307312, 0.046797771006822586, -0.07090461999177933, 0.1326291263103485, -0.02964315377175808, -0.02571204863488674, -0.06555934250354767, -0.13199658691883087, 0.06503651291131973, 0.09431733191013336, 0.11221449077129364], [-0.03961828723549843, 0.11347904801368713, -0.027107996866106987, 0.028767116367816925, -0.10515794903039932, -0.14121928811073303, 0.1662081778049469, 0.019127584993839264, -0.14810189604759216, -0.05037417635321617, -0.18602226674556732, -0.09810122102499008, -0.07252610474824905, -0.069571852684021, -0.014343657530844212, 0.13073445856571198, 0.1143980622291565, 0.012863457202911377, -0.1539911925792694, -0.1787145584821701, -0.12307007610797882, 0.004967472516000271, 0.043447837233543396, 0.14773540198802948, 0.0832660049200058, -0.10633330047130585, -0.113816037774086, -0.14450684189796448, 0.014340181834995747, 0.12129493802785873, -0.05842069536447525, -0.08143815398216248], [-0.039645034819841385, 0.09036675840616226, 0.15038271248340607, 0.14251302182674408, -0.009742195717990398, 0.052290406078100204, -0.03325619176030159, -0.040706053376197815, -0.16707094013690948, -0.06511497497558594, -0.1424187421798706, -0.0060049863532185555, -0.0772659182548523, 0.016796784475445747, -0.08346425741910934, 0.11930648237466812, -0.0650964230298996, 0.06896845251321793, 0.03280399739742279, -0.014434809796512127, 0.02883378230035305, -0.029691895470023155, -0.09369868040084839, 0.14982189238071442, -0.13264498114585876, 0.04719340801239014, -0.1008131131529808, -0.024215510115027428, -0.18099798262119293, 0.08554255962371826, 0.09409281611442566, 0.08175300061702728], [0.13577593863010406, 0.046070098876953125, 0.1599399894475937, -0.037120599299669266, 0.12402759492397308, 0.11005207151174545, -0.06120968237519264, 0.05930327996611595, -0.015277753584086895, 0.16152560710906982, 0.09602463990449905, 0.04978515952825546, 0.01717419922351837, -0.05479356274008751, -0.07922586798667908, 0.1543281376361847, -0.10961062461137772, -0.032943349331617355, -0.0011118920519948006, 0.01271593663841486, 0.0741589143872261, -0.15575160086154938, -0.029348568990826607, 0.16133640706539154, -0.06641892343759537, 0.12107047438621521, -0.12000938504934311, -0.08100388944149017, 0.09372429549694061, -0.08302339911460876, -0.11106966435909271, 0.013725550845265388], [0.14710597693920135, -0.1268034726381302, 0.002380253281444311, 0.1089712604880333, 0.03339652344584465, 0.1492888182401657, 0.10963723808526993, -0.029913097620010376, 0.10577516257762909, 0.13790498673915863, -0.10273444652557373, 0.08405491709709167, 0.15853287279605865, -0.10447052866220474, -0.06048711761832237, -0.019463520497083664, -0.08578553050756454, -0.08136925101280212, 0.037304967641830444, 0.10527539253234863, 0.07420417666435242, 0.159305602312088, -0.08382832258939743, 0.09656408429145813, 0.0007018427131697536, 0.1667284220457077, -0.059596024453639984, -0.02267634868621826, -0.08796988427639008, -0.00891847163438797, -0.01911093294620514, -0.040911417454481125], [-0.08839038759469986, 0.04477250576019287, 0.03254198655486107, -0.07808607071638107, -0.0008730570552870631, -0.15306800603866577, 0.10222258418798447, -0.08002542704343796, -0.010706616565585136, 0.0252164825797081, 0.1464725285768509, -0.10205425322055817, -0.01291673630475998, -0.06981784105300903, -0.16599364578723907, -0.0829392746090889, 0.017338953912258148, -0.11175870895385742, -0.10731663554906845, -0.14840245246887207, 0.18194957077503204, -0.13922129571437836, 0.03461567312479019, -0.054497551172971725, -0.010285481810569763, -0.11167626082897186, -0.09276695549488068, 0.0987192913889885, 0.12393928319215775, 0.14880964159965515, 0.15322501957416534, -0.15677161514759064], [-0.12585636973381042, -0.13777539134025574, -0.13722118735313416, -0.11419755220413208, -0.1231333315372467, -0.14498569071292877, 0.10416031628847122, -0.13615095615386963, 0.15407682955265045, -0.18025198578834534, 0.13158026337623596, 0.06790493428707123, -0.09500862658023834, 0.07619566470384598, -0.02079419046640396, 0.15657080709934235, 0.11593057960271835, 0.041283030062913895, -0.05210601165890694, -0.08188757300376892, 0.11682077497243881, -0.14022554457187653, -0.08790577203035355, 0.14830051362514496, -0.1702672392129898, -0.1274423599243164, -0.062342602759599686, 0.179536372423172, 0.10150502622127533, 0.09803375601768494, -0.09778154641389847, 0.13604803383350372], [0.1089542880654335, 0.04127317667007446, 0.04172244668006897, 0.10943020135164261, -0.11764181405305862, -0.1543230414390564, -0.15140651166439056, 0.04951213672757149, -0.05887976288795471, 0.060817670077085495, 0.11059986799955368, 0.16501010954380035, 0.15125387907028198, -0.1743953973054886, 0.11895564198493958, 0.08888879418373108, 0.1652652770280838, -0.02703782543540001, -0.047009699046611786, -0.18019677698612213, 0.12128005176782608, -0.11349310725927353, -0.012699052691459656, -0.06450716406106949, -0.08079545199871063, -0.027479879558086395, -0.15140865743160248, 0.11674953252077103, -0.13414029777050018, 0.15860551595687866, -0.08617822825908661, -0.06665683537721634], [-0.13742412626743317, -0.01807902380824089, 0.08150091022253036, -0.04593352973461151, 0.16506238281726837, 0.08364631235599518, -0.04310102015733719, -0.07713300734758377, 0.16792833805084229, -0.1328701376914978, -0.05486661568284035, -0.09714215993881226, -0.08704844862222672, 0.10310768336057663, 0.12425673007965088, -0.043904513120651245, -0.003261375706642866, 0.0897379070520401, 0.020681291818618774, -0.0007809334201738238, -0.059725210070610046, -0.06608729809522629, -0.04366660863161087, -0.12008737027645111, -0.17381435632705688, 0.004433004185557365, -0.15381832420825958, 0.10198119282722473, 0.031983885914087296, 0.007429135963320732, 0.1206713616847992, 0.032345961779356], [-0.12279672175645828, -0.10848359018564224, 0.07802551239728928, -0.03719864785671234, -0.08831357955932617, -0.06551725417375565, 0.0676494762301445, 0.027680132538080215, 0.07564300298690796, -0.15061183273792267, 0.10676103085279465, -0.021487070247530937, -0.14908267557621002, 0.0010755372932180762, -0.16049045324325562, 0.020513253286480904, -0.1326625496149063, 0.0859808400273323, -0.1526767760515213, 0.030347896739840508, 0.009981694631278515, -0.18023286759853363, -0.020837025716900826, 0.1563863605260849, 0.0911364033818245, 0.07627774775028229, -0.005431364290416241, 0.14928574860095978, 0.037595197558403015, 0.15292611718177795, 0.12216787040233612, 0.07379643619060516], [-0.08067364990711212, 0.14887763559818268, 0.18690644204616547, -0.15970782935619354, -0.027760226279497147, 0.010710928589105606, -0.12634225189685822, -0.006721992511302233, 0.1247158870100975, -0.0772489532828331, 0.042841024696826935, 0.17546088993549347, -0.07631556689739227, -0.12672898173332214, -0.13329368829727173, -0.14127054810523987, 0.1766417771577835, -0.10730220377445221, -0.058171965181827545, -0.10477562248706818, -0.16622285544872284, 0.06930814683437347, 0.0357193686068058, 0.12876911461353302, -0.1183832660317421, -0.1297851949930191, -0.14694003760814667, 0.11569635570049286, 0.08191429823637009, 0.03941904753446579, 0.16278503835201263, 0.17234192788600922], [-0.1312071532011032, 0.024259934201836586, -0.00248142727650702, -0.09444693475961685, -0.01036276388913393, 0.10301222652196884, 0.09041748940944672, 0.1219782754778862, 0.1488407403230667, -0.05652041360735893, -0.07226575165987015, 0.01987445540726185, -0.09349802881479263, 0.1213858351111412, -0.06206145137548447, -0.02913065440952778, 0.11533048748970032, 0.16380542516708374, -0.01981777884066105, 0.12239649891853333, 0.1408977210521698, -0.06482382863759995, 0.1139969751238823, 0.11139388382434845, 0.1552172750234604, 0.03286994993686676, 0.042004767805337906, -0.07320071756839752, 0.0879543274641037, -0.14581730961799622, 0.04799117147922516, 0.059154197573661804], [-0.17438776791095734, 0.11235302686691284, 0.13617020845413208, 0.04909572750329971, -0.15156477689743042, 0.14384496212005615, -0.14733558893203735, -0.04443179443478584, -0.09899132698774338, 0.10132837295532227, -0.07134167104959488, -0.021825337782502174, -0.13247272372245789, -0.0018931812373921275, -0.08402299135923386, -0.04666118323802948, -0.06420092284679413, 0.11856487393379211, -0.03712614253163338, -0.06728273630142212, -0.11049006879329681, 0.16957637667655945, 0.0878426730632782, -0.10531335324048996, -0.12790776789188385, 0.03458530455827713, -0.16062615811824799, -0.14443007111549377, 0.03267350047826767, 0.17245429754257202, 0.12128882855176926, -0.1484852433204651], [-0.17105990648269653, 0.1372554451227188, 0.04148005694150925, -0.03517976030707359, 0.14582356810569763, 0.12683862447738647, -0.11243913322687149, -0.12320800870656967, -0.18282991647720337, -0.021139318123459816, -0.10720311850309372, 0.05106272175908089, 0.1585068255662918, 0.03542381897568703, -0.15324866771697998, 0.12404976785182953, -0.1172979325056076, 0.05326072871685028, -0.01775708980858326, 0.060506343841552734, -0.12995798885822296, 0.034243855625391006, -0.06773103773593903, 0.08781465888023376, -0.16456100344657898, 0.1303851157426834, 0.18679668009281158, -0.1287824809551239, -0.10380426794290543, -0.04009034484624863, 0.058225203305482864, 0.1667969524860382], [-0.014409816823899746, 0.07190592586994171, -0.022003469988703728, 0.15773428976535797, 0.06219659745693207, 0.14622972905635834, 0.13295407593250275, -0.028024090453982353, 0.15150286257266998, -0.15558087825775146, -0.05904170498251915, -0.008751193061470985, -0.07728172093629837, 0.1605415642261505, -0.14628830552101135, -0.16972549259662628, 0.1449625939130783, 0.018978822976350784, 0.16872332990169525, 0.1390894502401352, -0.0913454219698906, 0.05045828968286514, 0.030250754207372665, -0.07575363665819168, -0.1325482577085495, -0.14127983152866364, -0.07562898844480515, 0.025145357474684715, -0.12980176508426666, -0.048676349222660065, -0.03218039870262146, 0.0355612188577652], [-0.1689746230840683, 0.04140748828649521, -0.15735886991024017, 0.06558217853307724, 0.1426427811384201, -0.035695768892765045, 0.14888198673725128, 0.07030951231718063, -0.18228015303611755, -0.027270108461380005, -0.09429175406694412, -0.011947732418775558, -0.12853996455669403, -0.15570855140686035, -0.09819196164608002, -0.1136549785733223, 0.07344681769609451, -0.05968724936246872, -0.11257649213075638, -0.07072000950574875, -0.03558218851685524, 0.183771014213562, 0.18197330832481384, -0.11425259709358215, 0.05830676108598709, 0.10074380785226822, 0.1276940554380417, -0.09578721970319748, -0.07130905985832214, -0.12803055346012115, -0.1397046595811844, 0.0032681680750101805], [0.14621300995349884, 0.09312283992767334, 0.0021003629080951214, -0.14298193156719208, -0.10621070116758347, -0.0014462885446846485, 0.057779356837272644, -0.11451026797294617, -0.09721361845731735, 0.15123458206653595, 0.10542891174554825, 0.16635358333587646, 0.005684342235326767, -0.06174015253782272, 0.15660734474658966, -0.11574558168649673, 0.09535016864538193, 0.015109056606888771, -0.1138361394405365, 0.08746480196714401, 0.07462004572153091, 0.13264678418636322, 0.054943282157182693, -0.14472725987434387, -0.09324267506599426, 0.0674884244799614, -0.04793333634734154, 0.061471711844205856, 0.15587526559829712, -0.02019912749528885, -0.03765636682510376, -0.1153264194726944], [0.16297990083694458, -0.09854581952095032, -0.10785704851150513, 0.15280643105506897, 0.006087480112910271, 0.06825681030750275, 0.04467467963695526, -0.05090748518705368, -0.14542144536972046, 0.063722163438797, 0.015916654840111732, -0.10217764973640442, 0.046081822365522385, 0.05061497166752815, -0.17704753577709198, -0.15305161476135254, 0.05069233104586601, -0.15511414408683777, -0.13886992633342743, 0.07183745503425598, 0.042813222855329514, -0.022921692579984665, -0.08645152300596237, -0.16728255152702332, -0.1003739982843399, 0.10138379037380219, 0.07056386023759842, 0.03111342154443264, -0.1254054307937622, -0.1328592747449875, -0.06133880093693733, -0.05552801489830017], [0.12086302787065506, -0.14580433070659637, 0.12718969583511353, -0.0699714869260788, 0.1401609480381012, -0.1837446540594101, 0.038196414709091187, -0.025147819891572, 0.14900656044483185, 0.11740034818649292, 0.17138853669166565, 0.012262747623026371, -0.11253535002470016, 0.011252238415181637, -0.06143736466765404, 0.13895662128925323, -0.030581055209040642, -0.12245149165391922, 0.051301009953022, 0.1463603526353836, -0.18265627324581146, -0.17504693567752838, -0.16753357648849487, 0.00893003772944212, -0.07507563382387161, 0.142502561211586, 0.07045239955186844, 0.07182567566633224, 0.046801816672086716, -0.008619527332484722, -0.03862213343381882, -0.17814457416534424], [0.12296763062477112, 0.04169539362192154, -0.07293614745140076, 0.004675197880715132, -0.09919264167547226, 0.0011164729949086905, -0.1311986744403839, 0.004493751563131809, -0.14685875177383423, -0.00635524233803153, 0.05752862989902496, -0.04876362532377243, 0.06240261346101761, 0.17879682779312134, -0.14596273005008698, -0.06938230246305466, -0.1609645038843155, 0.025035837665200233, -0.04310990497469902, -0.13729308545589447, 0.0397871695458889, -0.02121114730834961, -0.025338025763630867, -0.16257111728191376, 0.1325538158416748, 0.1683923453092575, 0.007359455339610577, -0.11816824972629547, 0.16575311124324799, -0.0724731981754303, 0.12076133489608765, 0.06648794561624527], [-0.10008751600980759, 0.08951396495103836, 0.027790410444140434, 0.13347136974334717, -0.1473003625869751, 0.06809519976377487, -0.011570308357477188, -0.04616484418511391, -0.1138220727443695, 0.145347461104393, -0.16340109705924988, -0.10570782423019409, 0.010556792840361595, 0.12403175234794617, -0.14410436153411865, -0.06256639957427979, 0.13261735439300537, -0.08909416943788528, -0.020335687324404716, 0.04535135626792908, 0.11994729191064835, -0.06633048504590988, -0.0225488543510437, -0.04223307967185974, 0.08727647364139557, -0.014502760022878647, 0.13046346604824066, -0.11944975703954697, -0.10512617230415344, 0.16500145196914673, -0.07861068099737167, -0.033386047929525375], [0.049118995666503906, -0.09658366441726685, 0.06102395057678223, -0.05056797340512276, 0.013649862259626389, -0.08793266862630844, -0.008690090849995613, -0.17440730333328247, 0.152854785323143, 0.147976353764534, -0.14081646502017975, 0.030862413346767426, 0.08496091514825821, 0.06051843613386154, -0.12372558563947678, 0.16141247749328613, 0.055083584040403366, -0.16367533802986145, 0.06852209568023682, -0.16389437019824982, -0.06848538666963577, -0.15190324187278748, -0.14099366962909698, -0.15485148131847382, -0.1471867859363556, -0.010909074917435646, -0.1660325825214386, -0.08930141478776932, -0.0778307169675827, 0.1560819000005722, -0.15523120760917664, 0.0837336853146553], [0.16662174463272095, -0.11490320414304733, 0.15279246866703033, -0.08578523993492126, -0.06047167629003525, -0.06976056843996048, 0.10689885914325714, 0.035194218158721924, -0.16173724830150604, -0.006358796264976263, -0.17596252262592316, -0.04478781670331955, -0.12998776137828827, 0.04849172383546829, 0.12890005111694336, 0.08800029009580612, 0.1752253770828247, -0.005140160210430622, 0.08565179258584976, 0.023071186617016792, 0.16961708664894104, 0.06634733825922012, -0.008432327769696712, 0.12494318187236786, 0.08036581426858902, -0.08198703825473785, 0.17692598700523376, -0.003429853357374668, 0.15334314107894897, -0.07470258325338364, 0.0934164747595787, 0.06729806959629059], [0.025379428640007973, -0.0023701158352196217, 0.09067228436470032, 0.060882799327373505, -0.06087768077850342, -0.17726370692253113, -0.1023440808057785, 0.10822271555662155, 0.011504240334033966, 0.08372482657432556, -0.142891064286232, -0.03368886932730675, 0.16528332233428955, -0.05172445625066757, 0.05320006236433983, 0.11889971792697906, 0.010098126716911793, -0.12562552094459534, 0.15124188363552094, -0.16109183430671692, -0.0748138278722763, 0.0662885457277298, 0.03533850610256195, -0.10136958956718445, -0.026984577998518944, 0.0936388149857521, -0.020801367238163948, -0.052832286804914474, -0.00650861905887723, -0.07463031262159348, -0.0551629364490509, -0.091095469892025], [0.1549096554517746, 0.12026625871658325, -0.06875810772180557, 0.14995813369750977, 0.052333150058984756, -0.15634573996067047, 0.021153055131435394, -0.16137823462486267, -0.09779246896505356, -0.13749948143959045, 0.11641118675470352, -0.058425646275281906, 0.07685961574316025, -0.11633992940187454, -0.12019483000040054, -0.05574261397123337, -0.010872148908674717, -0.09820573031902313, -0.08928124606609344, -0.14480553567409515, 0.00485752709209919, -0.10795063525438309, 0.1759476214647293, -0.07779626548290253, 0.0015430423663929105, -0.05857039615511894, 0.10254615545272827, 0.025416551157832146, 0.036959871649742126, 0.08813788741827011, -0.1718732714653015, 0.02396545186638832], [0.1530100405216217, 0.1329600214958191, -0.0359194315969944, 0.08282290399074554, -0.07079648971557617, -0.1498175412416458, -0.04874503239989281, -0.016849204897880554, -0.09782367944717407, 0.07644908875226974, 0.12770205736160278, 0.12079180032014847, 0.01712222211062908, 0.12812072038650513, 0.02101193182170391, -0.15639667212963104, 0.07573790103197098, 0.16195088624954224, -0.011358059011399746, 0.17809522151947021, 0.1436111032962799, -0.12681302428245544, -0.08070727437734604, 0.025162523612380028, 0.16547593474388123, 0.17905974388122559, -0.015658626332879066, -0.07670827209949493, -0.08991920202970505, 0.10895702987909317, -0.08228807896375656, -0.15929749608039856], [0.12132018059492111, 0.1272331029176712, 0.09779676795005798, -0.14705879986286163, 0.03564528748393059, -0.16267718374729156, 0.14330917596817017, 0.062431707978248596, -0.12888632714748383, -0.01855696365237236, 0.06408078968524933, -0.15724529325962067, 0.08146867156028748, 0.08406826108694077, 0.06262484937906265, -0.007917522452771664, -0.045655570924282074, 0.0505402497947216, 0.10791421681642532, -0.06679216027259827, 0.06224466487765312, 0.10457783937454224, 0.020627276971936226, 0.036063190549612045, 0.11828728020191193, -0.06626991182565689, -0.026983223855495453, 0.04895692318677902, -0.08277139812707901, 0.018517713993787766, -0.15930816531181335, 0.09408878535032272], [0.04079679027199745, -0.16834859549999237, -0.16586202383041382, 0.08415790647268295, 0.13096722960472107, -0.01104789413511753, 0.11936742812395096, 0.09660081565380096, -0.006141905207186937, 0.09374310076236725, -0.027483204379677773, 0.09255742281675339, 0.03290265053510666, -0.08226735144853592, -0.03682491183280945, 0.04233834519982338, 0.12115129828453064, 0.13018031418323517, -0.11301685124635696, -0.0947398915886879, -0.14946642518043518, -0.05747641623020172, 0.07047013938426971, -0.08250383287668228, 0.06819593161344528, -0.12004048377275467, 0.03880844637751579, 0.16362228989601135, -0.006925099063664675, -0.08010004460811615, -0.10689976066350937, 0.16001735627651215], [0.06324049085378647, -0.026730338111519814, 0.019545087590813637, -0.06818224489688873, -0.13364945352077484, -0.14149117469787598, 0.05559063330292702, -0.002694819588214159, 0.020182466134428978, -0.1417355090379715, -0.08254221826791763, -0.03868315368890762, 0.1378023475408554, -0.057924166321754456, 0.11790129542350769, -0.09946872293949127, 0.14279179275035858, 0.039487119764089584, -0.022095266729593277, -0.1466568261384964, 0.07559728622436523, 0.1329049915075302, -0.14794892072677612, -0.17255325615406036, 0.14784705638885498, -0.07167685776948929, 0.05115804076194763, 0.1257600635290146, -0.10378342121839523, 0.13905242085456848, 0.11322911828756332, -0.11604677140712738], [-0.018815435469150543, 0.18503306806087494, 0.08108207583427429, 0.05811533331871033, 0.02540946751832962, 0.1740974336862564, 0.004387191496789455, 0.06639043986797333, -0.16216424107551575, -0.04099235683679581, 0.12305272370576859, -0.013040969148278236, 0.039846401661634445, -0.1790696382522583, 0.06592771410942078, 0.07289881259202957, 0.17447474598884583, -0.05814819410443306, -0.0032590338960289955, -0.12604236602783203, 0.07864736765623093, -0.02738569676876068, 0.0011467107106000185, -0.18305057287216187, 0.05386577174067497, -0.03472502902150154, -0.02721358649432659, 0.11239087581634521, -0.06143071502447128, -0.15106046199798584, -0.17665740847587585, 0.07280982285737991]], "lstm.bias_ih_l0": [0.04131125286221504, 0.15174324810504913, -0.032998889684677124, 0.049473728984594345, 0.01068844087421894, -0.027998443692922592, -0.016606055200099945, 0.09452895820140839, -0.015263943001627922, -0.019275305792689323, -0.12031152099370956, 0.08863478153944016, 0.07635204493999481, 0.10762834548950195, -0.06410830467939377, 0.1346469223499298, 0.045763783156871796, 0.035755131393671036, -0.00013935384049545974, -0.09051854908466339, 0.14934784173965454, -0.1764015108346939, 0.006920823827385902, -0.07776689529418945, 0.168014794588089, -0.03131428360939026, -0.10500413179397583, 0.04489618539810181, -0.01946711167693138, 0.08942760527133942, -0.14140598475933075, 0.14987289905548096, -0.1262005865573883, 0.1789829283952713, 0.02578088827431202, -0.03868194296956062, -0.086894191801548, 0.025114774703979492, 0.1454365998506546, -0.02833816409111023, 0.005024056416004896, -0.0923665314912796, 0.018093708902597427, 0.0957694873213768, -0.0871267020702362, -0.13537365198135376, -0.08032440394163132, 0.06948018074035645, 0.1259157806634903, -0.1604747474193573, 0.16152548789978027, -0.1328287273645401, -0.07688406854867935, -0.04597272723913193, -0.011995645239949226, 0.11248185485601425, -0.07735534757375717, -0.06932399421930313, 0.1033514142036438, -0.14890576899051666, -0.03528587892651558, 0.07712490111589432, 0.12442852556705475, -0.0538862980902195, -0.12458505481481552, 0.08491245657205582, 0.14887042343616486, 0.18204523622989655, -0.03323047235608101, 0.04378119483590126, -0.1802707314491272, 0.029591817408800125, -0.07651161402463913, 0.09574677050113678, -0.15456688404083252, -0.025654004886746407, 0.08653213083744049, -0.12081414461135864, -0.1613733321428299, 0.09310805052518845, -0.01070062629878521, -0.13523760437965393, -0.10941558331251144, -0.09700203686952591, 0.004171890672296286, 0.14073430001735687, 0.18667158484458923, -0.1507738083600998, 0.11572978645563126, 0.08618355542421341, 0.17788803577423096, -0.08396068215370178, 0.0209036897867918, 0.042859505861997604, -0.09703363478183746, -0.1318216770887375, 0.09584369510412216, 0.13616645336151123, 0.05578938126564026, -0.1298433393239975, -0.11960658431053162, 0.02439446933567524, -0.0066901082172989845, 0.05376295745372772, -0.028814351186156273, 0.1540277600288391, -0.05855780839920044, 0.05170059576630592, -0.12670578062534332, -0.10972986370325089, 0.1335994303226471, 0.0235969927161932, -0.1414569467306137, -0.019183529540896416, 0.1645824909210205, -0.14068594574928284, 0.057280831038951874, -0.1590173989534378, 0.048055149614810944, -0.09165200591087341, 0.013859879225492477, 0.07356183230876923, 0.12543338537216187, 0.05238504707813263, -0.02028544433414936, -0.010746017098426819, -0.035257548093795776, 0.02345914952456951], "lstm.bias_hh_l0": [0.09130778163671494, 0.09705252200365067, 0.053547345101833344, -0.019550709053874016, -0.15940417349338531, -0.08182741701602936, 0.10331082344055176, 0.08451349288225174, -0.004410671070218086, 0.0737573504447937, 0.13652896881103516, -0.05384276807308197, -0.13045649230480194, -0.09750136733055115, -0.03745854273438454, 0.15867990255355835, 0.06494796276092529, -0.06899400800466537, -0.07939881831407547, -0.071956105530262, 0.06610075384378433, -0.1812175065279007, -0.11149686574935913, 0.11938884109258652, -0.006671894807368517, -0.1311812698841095, 0.16569319367408752, -0.17557001113891602, 0.06765569001436234, 0.014162909239530563, -0.1260710209608078, 0.08255638927221298, 0.09961657971143723, -0.14838078618049622, -0.04767998307943344, -0.11130047589540482, 0.043187953531742096, 0.07536347210407257, 0.18333467841148376, 0.04527835547924042, -0.12423522025346756, -0.03905463591217995, -0.10430329293012619, -0.0966496467590332, -0.16028915345668793, -0.08427281677722931, -0.1305142641067505, 0.03140726685523987, -0.1756982058286667, 0.1763683706521988, 0.013023258186876774, -0.014301280491054058, 0.12976287305355072, 0.12980049848556519, 0.0628325343132019, 0.13394756615161896, 0.03925280645489693, -0.04077312722802162, -0.07845915853977203, 0.051867879927158356, 0.16377931833267212, -0.048738207668066025, 0.11530253291130066, -0.04592041298747063, 0.08523444086313248, 0.06856146454811096, -0.03637627512216568, 0.07165303081274033, -0.040701113641262054, 0.023645279929041862, -0.17721067368984222, 0.02860136702656746, -0.16123346984386444, -0.009411463513970375, 0.04524790495634079, 0.16447529196739197, -0.17997878789901733, -0.18029989302158356, -0.1384996622800827, -0.03881612792611122, 0.0661393254995346, -0.12227123230695724, -0.059981055557727814, 0.03214805945754051, 0.01989087648689747, 0.10195931792259216, 0.1635901778936386, -0.11177951097488403, -0.04454578459262848, -0.16011448204517365, 0.09423883259296417, -0.1664285510778427, 0.03766327351331711, 0.054332636296749115, -0.12033190578222275, 0.1714991182088852, 0.15248726308345795, 0.13754183053970337, 0.04658522829413414, -0.045198604464530945, -0.18351240456104279, 0.11755066365003586, 0.14343054592609406, -0.018200775608420372, 0.05165871977806091, 0.0853075385093689, 0.0895526111125946, -0.07491655647754669, -0.08162201941013336, -0.12314853817224503, -0.10670822113752365, -0.03957623243331909, -0.07091428339481354, -0.04078530892729759, 0.0457623191177845, 0.05520767346024513, -0.14170143008232117, -0.1503271758556366, 0.10552165657281876, 0.09369366616010666, -0.06662193685770035, 0.11424887180328369, 0.15561001002788544, 0.13191746175289154, -0.09505582600831985, -0.07011999189853668, 0.1254756897687912, -0.12351010739803314], "lin.weight": [[0.15294204652309418, 0.10279415547847748, 0.08104784786701202, -0.005140441004186869, -0.10140728205442429, 0.09690148383378983, -0.04054680094122887, 0.12807129323482513, 0.10927362740039825, 0.1717398762702942, 0.03327957168221474, -0.05076005682349205, -0.07525858283042908, -0.07329510897397995, -0.07988328486680984, 0.08794541656970978, -0.09195764362812042, -0.07995754480361938, 0.12600447237491608, -0.1828969419002533, -0.05436195805668831, -0.065885528922081, 0.05023227632045746, 0.09659087657928467, 0.08049383014440536, 0.08596912026405334, 0.0330803245306015, 0.1282777339220047, 0.09929797798395157, -0.16436855494976044, -0.1456659883260727, 0.14133943617343903]], "lin.bias": [-0.07498089224100113]}}